{"learner":{"attributes":{"scikit_learn":"{\"_estimator_type\": \"classifier\"}"},"feature_names":["transcript_position","avg_central_mean","avg_1+flank_std","med_central_std","med_central_mean","med_1+flank_std","std_1-flank_std","std_1-flank_mean","std_central_std","std_central_mean","std_1+flank_std","std_1+flank_mean","seq_left","seq_center","seq_right"],"feature_types":["float","float","float","float","float","float","float","float","float","float","float","float","float","float","float"],"gradient_booster":{"model":{"gbtree_model_param":{"num_parallel_tree":"1","num_trees":"180"},"iteration_indptr":[0,1,2,3,4,5,6,7,8,9,10,11,12,13,14,15,16,17,18,19,20,21,22,23,24,25,26,27,28,29,30,31,32,33,34,35,36,37,38,39,40,41,42,43,44,45,46,47,48,49,50,51,52,53,54,55,56,57,58,59,60,61,62,63,64,65,66,67,68,69,70,71,72,73,74,75,76,77,78,79,80,81,82,83,84,85,86,87,88,89,90,91,92,93,94,95,96,97,98,99,100,101,102,103,104,105,106,107,108,109,110,111,112,113,114,115,116,117,118,119,120,121,122,123,124,125,126,127,128,129,130,131,132,133,134,135,136,137,138,139,140,141,142,143,144,145,146,147,148,149,150,151,152,153,154,155,156,157,158,159,160,161,162,163,164,165,166,167,168,169,170,171,172,173,174,175,176,177,178,179,180],"tree_info":[0,0,0,0,0,0,0,0,0,0,0,0,0,0,0,0,0,0,0,0,0,0,0,0,0,0,0,0,0,0,0,0,0,0,0,0,0,0,0,0,0,0,0,0,0,0,0,0,0,0,0,0,0,0,0,0,0,0,0,0,0,0,0,0,0,0,0,0,0,0,0,0,0,0,0,0,0,0,0,0,0,0,0,0,0,0,0,0,0,0,0,0,0,0,0,0,0,0,0,0,0,0,0,0,0,0,0,0,0,0,0,0,0,0,0,0,0,0,0,0,0,0,0,0,0,0,0,0,0,0,0,0,0,0,0,0,0,0,0,0,0,0,0,0,0,0,0,0,0,0,0,0,0,0,0,0,0,0,0,0,0,0,0,0,0,0,0,0,0,0,0,0,0,0,0,0,0,0,0,0],"trees":[{"base_weights":[-0E0,-1.2725631E0,3.167366E-1,-4.9497384E-1,-5.2067864E-1,6.3709474E-1,-1.0272577E0,-4.5180377E-2,-1.3136119E0,-3.2487887E-1,1.0634086E0,-3.2965615E-1,-1.526672E0,1.1040408E-1,-3.7194386E-1,-1.490292E0,-0E0,-1.1365488E0,1.7017095E-1,-9.285727E-1,1.1799488E0,-5.2400607E-1,4.2635918E-1,-5.1428425E-1,-9.4455105E-1,-3.4202427E-1,9.373102E-1,-1.5118146E0,-0E0,-1.7526709E-1,-1.660464E0,-6.936937E-1,6.2370205E-1,-3.6970863E-1,-9.04666E-3,5.1210392E-2,1.2894704E0,-0E0,-9.8033714E-1,3.3644018E-1,-4.2061368E-1,1.209046E-1,-9.111495E-1,1.1750548E0,-0E0,-4.5576468E-1,-0E0,-9.072521E-1,6.401702E-1,-5.126388E-1,-0E0,-1.4853933E0,-2.695195E-1,-5.458299E-1,8.5662633E-1,-0E0,-2.7964574E-1,3.8158017E-1,-9.212002E-1,1.4559854E0,4.8947346E-1,6.843362E-1,-5.4354304E-1,-1.0654194E0,-0E0,-0E0,3.445888E-1,-2.9450312E-1,-0E0,1.2738155E0,-0E0,-2.764724E-1,-0E0,1.0569049E0,-0E0,-1.5068324E0,-0E0,-0E0,-8.770989E-1,-0E0,-6.707757E-1,1.2947165E0,-1.5031821E-3,-1.08951785E-1,-0E0,-0E0,6.311456E-1,-0E0,-1.0469458E0,1.496974E0,2.824065E-1,1.2576035E0,5.7708416E-2,7.3800045E-1,-0E0,-0E0,-5.8841926E-1,-0E0,-1.0889637E0,1.4512698E-1,-0E0,-0E0,3.9162034E-1,-0E0,3.9095804E-1,-4.585317E-1,-0E0,-8.621142E-2,1.0642772E-1,-2.8501463E-1,-0E0,-0E0,-2.1614727E-1,4.3829218E-1,-0E0,2.7328822E-1,-1.10104084E-1,2.186876E-1,-0E0,-0E0,-3.204594E-1,3.7093818E-1,5.052321E-1,2.4878992E-1,-0E0,4.1076517E-1,-0E0,-1.3006076E-1,1.2011188E-1,-0E0,2.2997352E-1,-1.8642193E-1,-0E0,-0E0,-3.285223E-1],"categories":[],"categories_nodes":[],"categories_segments":[],"categories_sizes":[],"default_left":[0,0,0,0,0,0,0,0,0,0,0,0,0,0,0,0,0,0,0,0,0,0,0,0,0,0,0,0,0,0,0,0,0,0,0,0,0,0,0,0,0,0,0,0,0,0,0,0,0,0,0,0,0,0,0,0,0,0,0,0,0,0,0,0,0,0,0,0,0,0,0,0,0,0,0,0,0,0,0,0,0,0,0,0,0,0,0,0,0,0,0,0,0,0,0,0,0,0,0,0,0,0,0,0,0,0,0,0,0,0,0,0,0,0,0,0,0,0,0,0,0,0,0,0,0,0,0,0,0,0,0,0,0,0,0],"id":0,"left_children":[1,3,5,-1,7,9,11,13,15,17,19,21,23,25,-1,27,-1,29,31,33,35,37,-1,-1,39,41,43,45,-1,47,49,51,53,-1,55,57,59,61,63,-1,-1,65,67,69,-1,-1,-1,71,73,-1,-1,75,77,79,81,-1,83,85,87,89,91,93,95,97,-1,-1,99,-1,-1,101,-1,-1,-1,103,-1,105,-1,107,109,-1,111,113,115,-1,-1,-1,117,-1,119,121,123,125,127,129,-1,-1,131,-1,133,-1,-1,-1,-1,-1,-1,-1,-1,-1,-1,-1,-1,-1,-1,-1,-1,-1,-1,-1,-1,-1,-1,-1,-1,-1,-1,-1,-1,-1,-1,-1,-1,-1,-1,-1,-1],"loss_changes":[1.8887238E4,2.3516719E3,1.6101611E4,0E0,1.0364994E3,1.2560682E4,2.2328447E3,5.518042E2,3.0773926E2,3.841743E3,4.9451055E3,9.3042224E2,7.662402E1,7.510066E2,0E0,1.5417236E1,0E0,1.5624634E3,2.1963162E3,1.3842065E2,2.2944727E3,8.108335E2,0E0,0E0,1.1411815E3,3.8487433E2,1.3373688E2,8.659912E0,0E0,8.50894E2,2.1643652E2,3.7534332E2,1.0769209E3,0E0,1.7026728E1,5.3166223E2,2.1525273E3,4.6380902E2,1.1179346E2,0E0,0E0,3.344345E1,1.8665771E1,4.8039978E1,0E0,0E0,0E0,1.3716797E1,2.6482544E2,0E0,0E0,1.6786743E1,2.8609387E2,5.0445526E1,1.4040017E3,0E0,9.634794E0,1.9575319E2,6.570297E1,4.7229492E2,9.04882E2,2.7060791E1,1.8983017E1,4.425183E1,0E0,0E0,2.5818592E1,0E0,0E0,1.2792969E1,0E0,0E0,0E0,1.4617023E2,0E0,1.5389526E1,0E0,8.848731E1,5.497287E1,0E0,2.7759476E1,4.987561E2,2.5849994E2,0E0,0E0,0E0,9.7990875E1,0E0,8.825195E0,2.9453125E2,2.0421231E2,1.2047388E2,3.674764E2,2.1404236E1,0E0,0E0,1.22221985E1,0E0,1.311084E1,0E0,0E0,0E0,0E0,0E0,0E0,0E0,0E0,0E0,0E0,0E0,0E0,0E0,0E0,0E0,0E0,0E0,0E0,0E0,0E0,0E0,0E0,0E0,0E0,0E0,0E0,0E0,0E0,0E0,0E0,0E0,0E0,0E0,0E0,0E0,0E0],"parents":[2147483647,0,0,1,1,2,2,4,4,5,5,6,6,7,7,8,8,9,9,10,10,11,11,12,12,13,13,15,15,17,17,18,18,19,19,20,20,21,21,24,24,25,25,26,26,27,27,29,29,30,30,31,31,32,32,34,34,35,35,36,36,37,37,38,38,41,41,42,42,43,43,47,47,48,48,51,51,52,52,53,53,54,54,56,56,57,57,58,58,59,59,60,60,61,61,62,62,63,63,66,66,69,69,73,73,75,75,77,77,78,78,80,80,81,81,82,82,86,86,88,88,89,89,90,90,91,91,92,92,93,93,96,96,98,98],"right_children":[2,4,6,-1,8,10,12,14,16,18,20,22,24,26,-1,28,-1,30,32,34,36,38,-1,-1,40,42,44,46,-1,48,50,52,54,-1,56,58,60,62,64,-1,-1,66,68,70,-1,-1,-1,72,74,-1,-1,76,78,80,82,-1,84,86,88,90,92,94,96,98,-1,-1,100,-1,-1,102,-1,-1,-1,104,-1,106,-1,108,110,-1,112,114,116,-1,-1,-1,118,-1,120,122,124,126,128,130,-1,-1,132,-1,134,-1,-1,-1,-1,-1,-1,-1,-1,-1,-1,-1,-1,-1,-1,-1,-1,-1,-1,-1,-1,-1,-1,-1,-1,-1,-1,-1,-1,-1,-1,-1,-1,-1,-1,-1,-1],"split_conditions":[2.94537E-2,3.9130434E-1,4.8724714E-1,-4.9497384E-1,4.7826087E-1,4.117647E-1,8.8235295E-1,8.235294E-1,5.217391E-1,2.2694111E-1,1.8884088E-1,7.058824E-1,8.695652E-1,1.764706E-1,-3.7194386E-1,2.8528603E-2,-0E0,2.1899736E-1,2.3529412E-1,1.5699385E-1,1.9968924E-1,5.993589E-1,4.2635918E-1,-5.1428425E-1,1E0,1.12576954E-1,1.3786456E-1,8.439501E-2,-0E0,1.7391305E-1,3.529412E-1,1.1764706E-1,1.3043478E-1,-3.6970863E-1,1.9349164E-1,3.2393134E-1,4.2216358E-1,5.791557E-1,6.4705884E-1,3.3644018E-1,-4.2061368E-1,1.4824347E-2,2.7179807E-2,5.9903946E-2,-0E0,-4.5576468E-1,-0E0,2.5388408E-1,8.019566E-1,-5.126388E-1,-0E0,2.5515893E-1,3.4652594E-1,7.2410636E-2,3.0562884E-1,-0E0,3.3361256E-1,1.6058855E-1,6.3744473E-1,1E0,6.186713E-1,1.6366743E-1,4.9608755E-1,3.310728E-3,-0E0,-0E0,4.020484E-1,-2.9450312E-1,-0E0,1.04989596E-1,-0E0,-2.764724E-1,-0E0,1.764706E-1,-0E0,3.0301872E-1,-0E0,1.764706E-1,6.956522E-1,-0E0,3.529412E-1,8.580177E-1,7.4927723E-1,-1.08951785E-1,-0E0,-0E0,7.2033757E-1,-0E0,3.310728E-3,7.826087E-1,7.110806E-1,8.8235295E-1,7.826087E-1,1.2495328E-2,-0E0,-0E0,2.5939506E-1,-0E0,4.748821E-2,1.4512698E-1,-0E0,-0E0,3.9162034E-1,-0E0,3.9095804E-1,-4.585317E-1,-0E0,-8.621142E-2,1.0642772E-1,-2.8501463E-1,-0E0,-0E0,-2.1614727E-1,4.3829218E-1,-0E0,2.7328822E-1,-1.10104084E-1,2.186876E-1,-0E0,-0E0,-3.204594E-1,3.7093818E-1,5.052321E-1,2.4878992E-1,-0E0,4.1076517E-1,-0E0,-1.3006076E-1,1.2011188E-1,-0E0,2.2997352E-1,-1.8642193E-1,-0E0,-0E0,-3.285223E-1],"split_indices":[8,14,3,0,14,13,13,13,14,9,1,13,14,13,0,8,0,3,13,1,9,1,0,0,13,3,3,10,0,14,13,13,14,0,3,3,3,3,13,0,0,8,8,6,0,0,0,1,1,0,0,5,3,5,3,0,9,9,1,14,1,0,1,0,0,0,1,0,0,9,0,0,0,13,0,1,0,13,14,0,13,1,1,0,0,0,1,0,0,14,1,13,14,0,0,0,5,0,8,0,0,0,0,0,0,0,0,0,0,0,0,0,0,0,0,0,0,0,0,0,0,0,0,0,0,0,0,0,0,0,0,0,0,0,0],"split_type":[0,0,0,0,0,0,0,0,0,0,0,0,0,0,0,0,0,0,0,0,0,0,0,0,0,0,0,0,0,0,0,0,0,0,0,0,0,0,0,0,0,0,0,0,0,0,0,0,0,0,0,0,0,0,0,0,0,0,0,0,0,0,0,0,0,0,0,0,0,0,0,0,0,0,0,0,0,0,0,0,0,0,0,0,0,0,0,0,0,0,0,0,0,0,0,0,0,0,0,0,0,0,0,0,0,0,0,0,0,0,0,0,0,0,0,0,0,0,0,0,0,0,0,0,0,0,0,0,0,0,0,0,0,0,0],"sum_hessian":[4.68575E4,9.338E3,3.75195E4,6.09575E3,3.24225E3,3.038025E4,7.13925E3,2.13525E3,1.107E3,9.2305E3,2.114975E4,3.0935E3,4.04575E3,1.78825E3,3.47E2,9.985E2,1.085E2,3.6015E3,5.629E3,1.10375E3,2.0046E4,2.85525E3,2.3825E2,2.88075E3,1.165E3,1.049E3,7.3925E2,9.77E2,2.15E1,1.363E3,2.2385E3,1.83375E3,3.79525E3,7.175E2,3.8625E2,1.88375E3,1.816225E4,1.19625E3,1.659E3,1.5675E2,1.00825E3,4.46E2,6.03E2,5.67E2,1.7225E2,9.7125E2,5.75E0,8.0675E2,5.5625E2,2.18775E3,5.075E1,5.265E2,1.30725E3,5.325E2,3.26275E3,1.6875E2,2.175E2,1.5115E3,3.7225E2,1.4891E4,3.27125E3,6.3575E2,5.605E2,1.503E3,1.56E2,1.1E2,3.36E2,5.3875E2,6.425E1,5.12E2,5.5E1,7.98E2,8.75E0,4.4075E2,1.155E2,5.19E2,7.5E0,8.125E2,4.9475E2,6.8E1,4.645E2,2.2655E3,9.9725E2,2.0175E2,1.575E1,4.68E2,1.0435E3,2.425E1,3.48E2,1.42755E4,6.155E2,1.0625E3,2.20875E3,5.9625E2,3.95E1,2.75E1,5.33E2,2.7E1,1.476E3,2.805E2,5.55E1,1.7E1,4.95E2,6.5E1,3.7575E2,5.11E2,8E0,3.2125E2,4.9125E2,4.825E2,1.225E1,8.5E0,4.56E2,2.01275E3,2.5275E2,1.7775E2,8.195E2,9.665E2,7.7E1,6E0,3.42E2,6.27575E3,7.99975E3,3.6775E2,2.4775E2,9.605E2,1.02E2,7.4325E2,1.4655E3,7.25E0,5.89E2,5.095E2,2.35E1,5.5E0,1.4705E3],"tree_param":{"num_deleted":"0","num_feature":"15","num_nodes":"135","size_leaf_vector":"1"}},{"base_weights":[-2.5404843E-3,-1.0220128E0,2.1452779E-1,-1.3888774E0,-6.1785334E-1,4.1901496E-1,-9.0413547E-1,-1.3918134E0,-0E0,-1.1503841E0,-1.2771729E-1,-6.828571E-1,6.265154E-1,-3.6294815E-1,-1.2072351E0,-4.2030665E-1,-0E0,-1.1833074E0,-0E0,-7.671845E-1,1.7540583E-1,-0E0,-8.9538884E-1,-5.8444476E-1,7.5816894E-1,-5.197525E-1,2.3354872E-1,-0E0,-3.6818326E-1,-3.571035E-1,-0E0,-8.491816E-1,-0E0,5.1999265E-1,-4.557053E-1,-5.935797E-1,1.1815302E0,-2.9846418E-1,2.5158685E-1,-1.111114E0,-0E0,8.3356833E-1,-3.6394596E-1,-0E0,-6.363113E-1,-2.6150948E-1,-0E0,6.565443E-1,-0E0,-1.6702446E-1,-0E0,-2.5887704E-1,-0E0,3.806052E-1,-0E0,-0E0,-3.3741033E-1,1.3055862E-1,-2.8185117E-1,1.5617117E-1,9.5175433E-1,-0E0,-8.760808E-1,-1.969056E-1,-0E0,8.438215E-1,-0E0,-0E0,2.885485E-1,-4.3492594E-1,-0E0,-9.866878E-1,4.2548743E-1,1.049575E0,3.2133982E-1,-4.335471E-1,2.669488E-1,-2.8917044E-1,-0E0,-0E0,2.747603E-1,1.389907E-1,-0E0,-1.5429434E-1,-0E0,-0E0,-3.057443E-1,2.3608686E-1,-1.2724652E-2,-0E0,3.268012E-1,1.5609354E-1,-6.784983E-2,-0E0,-1.953699E-1,1.1570828E-1,-0E0],"categories":[],"categories_nodes":[],"categories_segments":[],"categories_sizes":[],"default_left":[0,0,0,0,0,0,0,0,0,0,0,0,0,0,0,0,0,0,0,0,0,0,0,0,0,0,0,0,0,0,0,0,0,0,0,0,0,0,0,0,0,0,0,0,0,0,0,0,0,0,0,0,0,0,0,0,0,0,0,0,0,0,0,0,0,0,0,0,0,0,0,0,0,0,0,0,0,0,0,0,0,0,0,0,0,0,0,0,0,0,0,0,0,0,0,0,0],"id":1,"left_children":[1,3,5,7,9,11,13,15,-1,17,19,21,23,25,27,-1,-1,29,-1,31,33,35,37,39,41,43,-1,-1,-1,-1,-1,45,-1,47,49,51,53,-1,-1,55,57,59,61,-1,63,-1,-1,65,-1,-1,-1,-1,-1,-1,-1,-1,-1,67,69,71,73,75,77,-1,-1,79,-1,-1,81,83,-1,85,87,89,91,93,95,-1,-1,-1,-1,-1,-1,-1,-1,-1,-1,-1,-1,-1,-1,-1,-1,-1,-1,-1,-1],"loss_changes":[1.0070858E4,9.124668E2,8.396923E3,2.266211E1,8.6650415E2,7.1679795E3,7.055547E2,1.3825195E1,0E0,9.990967E1,5.1009976E2,7.099761E2,4.251258E3,3.5476657E2,1.3378223E2,0E0,0E0,1.9551025E1,0E0,2.282315E1,3.0394363E2,8.107155E2,6.6327686E2,7.796361E2,2.096543E3,4.000348E1,0E0,0E0,0E0,0E0,0E0,1.0275757E1,0E0,1.26226776E2,9.418518E0,1.9947632E1,6.225659E1,0E0,0E0,3.307849E1,4.1857056E1,1.6590146E3,2.5517007E2,0E0,1.2795959E1,0E0,0E0,1.7254099E2,0E0,0E0,0E0,0E0,0E0,0E0,0E0,0E0,0E0,4.435891E1,3.0493814E1,1.0108512E3,9.8901953E2,9.660187E1,2.093509E1,0E0,0E0,6.6929565E1,0E0,0E0,4.1266056E1,1.8393848E1,0E0,3.0341248E1,6.021131E2,5.959512E2,3.4027E2,4.793263E1,2.3033325E1,0E0,0E0,0E0,0E0,0E0,0E0,0E0,0E0,0E0,0E0,0E0,0E0,0E0,0E0,0E0,0E0,0E0,0E0,0E0,0E0],"parents":[2147483647,0,0,1,1,2,2,3,3,4,4,5,5,6,6,7,7,9,9,10,10,11,11,12,12,13,13,14,14,17,17,19,19,20,20,21,21,22,22,23,23,24,24,25,25,31,31,33,33,34,34,35,35,36,36,39,39,40,40,41,41,42,42,44,44,47,47,57,57,58,58,59,59,60,60,61,61,62,62,65,65,68,68,69,69,71,71,72,72,73,73,74,74,75,75,76,76],"right_children":[2,4,6,8,10,12,14,16,-1,18,20,22,24,26,28,-1,-1,30,-1,32,34,36,38,40,42,44,-1,-1,-1,-1,-1,46,-1,48,50,52,54,-1,-1,56,58,60,62,-1,64,-1,-1,66,-1,-1,-1,-1,-1,-1,-1,-1,-1,68,70,72,74,76,78,-1,-1,80,-1,-1,82,84,-1,86,88,90,92,94,96,-1,-1,-1,-1,-1,-1,-1,-1,-1,-1,-1,-1,-1,-1,-1,-1,-1,-1,-1,-1],"split_conditions":[2.7179807E-2,1.0620208E-1,5.145119E-1,5.217391E-1,1.3379268E-1,2.9411766E-1,8.8235295E-1,2.9180545E-1,-0E0,7.826087E-1,2.6086956E-1,1.8997361E-1,2.6086956E-1,7.058824E-1,2.173913E-1,-4.2030665E-1,-0E0,2.324574E-1,-0E0,2.5059996E-2,4.7826087E-1,1.764706E-1,8.695652E-1,1.4841832E-1,1E0,5.408971E-1,2.3354872E-1,-0E0,-3.6818326E-1,-3.571035E-1,-0E0,3.1757978E-1,-0E0,1.7634125E-1,2.2058576E-2,1.0767801E-1,3.0063137E-1,-2.9846418E-1,2.5158685E-1,3.529412E-1,1.136572E-1,1.01473816E-1,3.4300792E-1,-0E0,6.4705884E-1,-2.6150948E-1,-0E0,7.647059E-1,-0E0,-1.6702446E-1,-0E0,-2.5887704E-1,-0E0,3.806052E-1,-0E0,-0E0,-3.3741033E-1,4.347826E-2,1.7391305E-1,5.217391E-1,4.3975374E-1,3.529412E-1,1.8998186E-1,-1.969056E-1,-0E0,1.25737805E-2,-0E0,-0E0,4.117647E-1,2.2273144E-1,-0E0,4.117647E-1,1.5316388E-1,1.6767234E-2,9.130435E-1,2.005277E-1,1.85029E-1,-2.8917044E-1,-0E0,-0E0,2.747603E-1,1.389907E-1,-0E0,-1.5429434E-1,-0E0,-0E0,-3.057443E-1,2.3608686E-1,-1.2724652E-2,-0E0,3.268012E-1,1.5609354E-1,-6.784983E-2,-0E0,-1.953699E-1,1.1570828E-1,-0E0],"split_indices":[8,7,3,14,11,13,13,11,0,14,14,3,14,13,12,0,0,2,0,8,14,13,14,11,14,3,0,0,0,0,0,11,0,3,8,7,2,0,0,13,5,11,3,0,13,0,0,13,0,0,0,0,0,0,0,0,0,14,14,14,3,13,11,0,0,8,0,0,13,5,0,13,2,0,12,3,7,0,0,0,0,0,0,0,0,0,0,0,0,0,0,0,0,0,0,0,0],"split_type":[0,0,0,0,0,0,0,0,0,0,0,0,0,0,0,0,0,0,0,0,0,0,0,0,0,0,0,0,0,0,0,0,0,0,0,0,0,0,0,0,0,0,0,0,0,0,0,0,0,0,0,0,0,0,0,0,0,0,0,0,0,0,0,0,0,0,0,0,0,0,0,0,0,0,0,0,0,0,0,0,0,0,0,0,0,0,0,0,0,0,0,0,0,0,0,0,0],"sum_hessian":[4.5007566E4,8.011225E3,3.6996344E4,4.020872E3,3.9903528E3,3.1382594E4,5.6137495E3,4.015622E3,5.25E0,1.7780942E3,2.2122585E3,4.86844E3,2.6514154E4,2.1781067E3,3.4356426E3,3.9700425E3,4.5579716E1,1.7518442E3,2.625E1,8.5646216E2,1.3557965E3,1.1515778E3,3.716862E3,2.4976614E3,2.4016492E4,2.0208617E3,1.5724501E2,2.2497665E1,3.413145E3,1.7449819E3,6.8622828E0,7.30581E2,1.2588111E2,1.01745483E3,3.3834164E2,7.646138E2,3.8696396E2,3.590149E3,1.2671314E2,1.3220842E3,1.1755773E3,2.261889E4,1.3976008E3,5.739596E2,1.4469021E3,7.068165E2,2.3764471E1,9.3083563E2,8.6619225E1,2.568527E2,8.148895E1,3.8824408E2,3.763697E2,3.7421954E2,1.2744398E1,5.6153717E0,1.3164688E3,8.268671E2,3.4871008E2,3.532516E3,1.9086375E4,8.2446796E2,5.731329E2,1.389558E3,5.734414E1,8.0557886E2,1.2525673E2,1.253151E2,7.0155206E2,3.0728342E2,4.1426685E1,5.763519E2,2.9561643E3,1.6334098E4,2.752278E3,3.2291623E2,5.0155176E2,4.95877E2,7.725585E1,4.206056E1,7.635183E2,4.6398657E2,2.3756548E2,2.890981E2,1.8185287E1,6.9567437E0,5.693952E2,1.8327078E3,1.1234564E3,6.685088E2,1.5665589E4,2.2022163E3,5.500617E2,6.713142E1,2.557848E2,3.947678E2,1.0678396E2],"tree_param":{"num_deleted":"0","num_feature":"15","num_nodes":"97","size_leaf_vector":"1"}},{"base_weights":[-1.0671987E-2,-8.763664E-1,1.4703551E-1,-1.1100087E0,-4.650975E-1,3.3854017E-1,-5.3050756E-1,-1.1239973E0,-0E0,-7.9509693E-1,4.082274E-2,-4.540517E-1,5.7947576E-1,-1.2814592E-1,-9.1277325E-1,-3.391948E-1,-0E0,-3.1828636E-1,-0E0,3.508069E-1,-0E0,-3.0528553E-2,-1.0994031E0,-7.599881E-1,6.784236E-1,5.3446484E-1,-5.76892E-1,-2.7474767E-1,-0E0,5.5040497E-1,-0E0,-6.4849E-1,2.2820252E-1,-0E0,-3.6745238E-1,-0E0,-9.8619777E-1,-2.6151758E-1,7.6864344E-1,9.100273E-1,-4.2036086E-2,-7.376608E-1,2.3986582E-1,7.743735E-1,-0E0,-9.028767E-1,-0E0,-1.000723E-2,5.290039E-1,-1.0103941E0,-0E0,-2.8513813E-1,-0E0,1.035218E0,2.5744325E-1,-0E0,1.0243546E0,-8.076483E-2,-0E0,-1.0389123E0,-3.3275962E-1,8.7337804E-1,-0E0,-0E0,-2.824753E-1,-3.183791E-1,2.6793283E-1,6.6758144E-1,-0E0,-0E0,-3.0569896E-1,1.539737E-1,-0E0,1.051238E0,-0E0,6.197525E-1,-2.1932761E-1,-0E0,1.0905671E0,-0E0,-3.1480527E-1,-0E0,-6.8330765E-1,-0E0,2.79279E-1,-1.6412747E-1,-0E0,2.446202E-1,-0E0,-0E0,2.3045616E-1,-0E0,9.9971935E-2,3.2220742E-1,-0E0,2.6031262E-1,-0E0,-2.0545866E-1,-0E0,-0E0,3.3384544E-1,-2.197563E-1,-0E0],"categories":[],"categories_nodes":[],"categories_segments":[],"categories_sizes":[],"default_left":[0,0,0,0,0,0,0,0,0,0,0,0,0,0,0,0,0,0,0,0,0,0,0,0,0,0,0,0,0,0,0,0,0,0,0,0,0,0,0,0,0,0,0,0,0,0,0,0,0,0,0,0,0,0,0,0,0,0,0,0,0,0,0,0,0,0,0,0,0,0,0,0,0,0,0,0,0,0,0,0,0,0,0,0,0,0,0,0,0,0,0,0,0,0,0,0,0,0,0,0,0,0,0],"id":2,"left_children":[1,3,5,7,9,11,13,15,-1,17,19,21,23,25,27,-1,-1,-1,-1,29,-1,31,33,35,37,39,41,-1,-1,43,-1,45,47,-1,-1,-1,49,51,53,55,57,59,-1,61,-1,63,-1,65,67,69,-1,-1,71,73,75,-1,77,-1,-1,79,81,83,-1,-1,-1,85,87,89,-1,-1,-1,91,-1,93,-1,95,97,-1,99,-1,-1,-1,101,-1,-1,-1,-1,-1,-1,-1,-1,-1,-1,-1,-1,-1,-1,-1,-1,-1,-1,-1,-1],"loss_changes":[5.8553335E3,4.2097412E2,4.583393E3,9.045801E1,5.400288E2,5.336715E3,1.0372112E3,3.4557617E1,0E0,2.701477E2,5.7977413E1,1.5838945E3,2.837981E3,1.1694183E3,1.3083008E1,0E0,0E0,0E0,0E0,5.140101E1,0E0,6.923641E2,3.7707935E2,1.622038E2,1.7750908E3,4.3438083E2,5.35466E2,0E0,0E0,6.772321E1,0E0,1.3146497E2,2.6043823E2,0E0,0E0,0E0,3.9156494E1,4.1158063E2,2.3415215E3,1.1411536E2,1.322984E1,9.106006E1,0E0,3.737175E1,0E0,3.5282898E1,0E0,1.1161823E2,1.8048547E2,8.259888E0,0E0,0E0,1.738267E1,1.5762988E2,1.1798135E3,0E0,5.9808838E1,0E0,0E0,1.6997559E1,1.3124596E2,8.999603E0,0E0,0E0,0E0,6.795448E1,1.7072191E2,6.7394226E1,0E0,0E0,0E0,5.102495E1,0E0,1.548623E2,0E0,5.990845E2,3.4064697E2,0E0,2.2298523E1,0E0,0E0,0E0,1.9629303E1,0E0,0E0,0E0,0E0,0E0,0E0,0E0,0E0,0E0,0E0,0E0,0E0,0E0,0E0,0E0,0E0,0E0,0E0,0E0,0E0],"parents":[2147483647,0,0,1,1,2,2,3,3,4,4,5,5,6,6,7,7,9,9,10,10,11,11,12,12,13,13,14,14,19,19,21,21,22,22,23,23,24,24,25,25,26,26,29,29,31,31,32,32,36,36,37,37,38,38,39,39,40,40,41,41,43,43,45,45,47,47,48,48,49,49,52,52,53,53,54,54,56,56,59,59,60,60,61,61,65,65,66,66,67,67,71,71,73,73,75,75,76,76,78,78,82,82],"right_children":[2,4,6,8,10,12,14,16,-1,18,20,22,24,26,28,-1,-1,-1,-1,30,-1,32,34,36,38,40,42,-1,-1,44,-1,46,48,-1,-1,-1,50,52,54,56,58,60,-1,62,-1,64,-1,66,68,70,-1,-1,72,74,76,-1,78,-1,-1,80,82,84,-1,-1,-1,86,88,90,-1,-1,-1,92,-1,94,-1,96,98,-1,100,-1,-1,-1,102,-1,-1,-1,-1,-1,-1,-1,-1,-1,-1,-1,-1,-1,-1,-1,-1,-1,-1,-1,-1],"split_conditions":[2.5501892E-2,1.4747807E-1,4.6350044E-1,4.9608755E-1,2.8751183E-1,2.171293E-1,8.8235295E-1,2.115387E-1,-0E0,1.5087517E-1,3.836978E-1,7.2167E-1,1.764706E-1,6.222664E-1,7.6906514E-1,-3.391948E-1,-0E0,-3.1828636E-1,-0E0,4.7058824E-1,-0E0,2.1088287E-1,2.081096E-1,1.416007E-1,1.9790557E-1,6.0422164E-1,7.058824E-1,-2.7474767E-1,-0E0,1.5479332E-1,-0E0,1.6213992E-1,1.412461E-1,-0E0,-3.6745238E-1,-0E0,4.4503906E-1,1.2489178E-1,7.0178926E-1,1.0833855E-1,1.362714E-1,3.5337988E-1,2.3986582E-1,4.3883565E-1,-0E0,3.529412E-1,-0E0,4.4503906E-1,3.3153167E-1,2.2084245E-1,-0E0,-2.8513813E-1,2.0228672E-1,3.0551112E-1,3.4476694E-1,-0E0,9.1831535E-2,-8.076483E-2,-0E0,4.5788795E-2,5.2682495E-1,1.0158491E-2,-0E0,-0E0,-2.824753E-1,1.2016897E-1,3.5004398E-1,1.5240881E-1,-0E0,-0E0,-3.0569896E-1,1.5558586E-1,-0E0,1.0197052E-1,-0E0,8.2107353E-1,2.8762302E-1,-0E0,7.4243814E-2,-0E0,-3.1480527E-1,-0E0,6.4705884E-1,-0E0,2.79279E-1,-1.6412747E-1,-0E0,2.446202E-1,-0E0,-0E0,2.3045616E-1,-0E0,9.9971935E-2,3.2220742E-1,-0E0,2.6031262E-1,-0E0,-2.0545866E-1,-0E0,-0E0,3.3384544E-1,-2.197563E-1,-0E0],"split_indices":[8,11,3,1,4,9,13,2,0,7,4,4,13,4,1,0,0,0,0,13,0,1,3,3,1,3,13,0,0,3,0,11,11,0,0,0,1,11,4,7,7,9,0,9,0,13,0,1,3,9,0,0,3,7,3,0,11,0,0,8,3,6,0,0,0,11,3,9,0,0,0,7,0,8,0,4,9,0,5,0,0,0,13,0,0,0,0,0,0,0,0,0,0,0,0,0,0,0,0,0,0,0,0],"split_type":[0,0,0,0,0,0,0,0,0,0,0,0,0,0,0,0,0,0,0,0,0,0,0,0,0,0,0,0,0,0,0,0,0,0,0,0,0,0,0,0,0,0,0,0,0,0,0,0,0,0,0,0,0,0,0,0,0,0,0,0,0,0,0,0,0,0,0,0,0,0,0,0,0,0,0,0,0,0,0,0,0,0,0,0,0,0,0,0,0,0,0,0,0,0,0,0,0,0,0,0,0,0,0],"sum_hessian":[4.2154797E4,6.629529E3,3.5525266E4,4.014625E3,2.6149038E3,2.7854758E4,7.6705093E3,3.9869045E3,2.7720509E1,1.7462798E3,8.6862396E2,6.3608057E3,2.1493951E4,3.9120427E3,3.7584666E3,3.9671543E3,1.9750275E1,1.2204753E3,5.2580444E2,4.822483E2,3.863757E2,3.9690183E3,2.3917874E3,1.3830265E3,2.0110926E4,1.4562916E3,2.4557512E3,3.7490508E3,9.415969E0,3.6519833E2,1.17049934E2,1.3273315E3,2.6416868E3,2.1358543E2,2.178202E3,3.9518094E2,9.878455E2,1.6281886E3,1.8482736E4,1.0255013E3,4.3079028E2,2.2883027E3,1.6744835E2,2.9712222E2,6.807614E1,8.457088E2,4.8162277E2,1.2203964E3,1.4212905E3,9.794243E2,8.421221E0,5.782827E2,1.0499059E3,1.1971393E4,6.5113438E3,1.075162E2,9.179851E2,1.924229E2,2.3836737E2,1.1175135E3,1.1707893E3,2.8243588E2,1.4686314E1,2.835765E1,8.1735114E2,8.121469E2,4.082494E2,1.2972114E3,1.24079185E2,8.522514E0,9.709018E2,7.325684E2,3.173374E2,1.1751926E4,2.1946709E2,3.8629546E3,2.6483892E3,5.7871994E1,8.6011316E2,6.698605E0,1.110815E3,6.125208E2,5.582685E2,2.3533274E1,2.5890262E2,5.0166403E2,3.1048288E2,3.0028632E2,1.0796308E2,2.0347815E2,1.0937333E3,1.17187195E2,6.153812E2,1.1392777E4,3.591485E2,2.7660178E3,1.0969368E3,9.973222E2,1.651067E3,1.6070925E1,8.4404224E2,5.2227496E2,3.5993523E1],"tree_param":{"num_deleted":"0","num_feature":"15","num_nodes":"103","size_leaf_vector":"1"}},{"base_weights":[-1.5396437E-2,-2.843611E-1,4.4590238E-1,-8.663475E-1,-5.6265865E-2,6.1495745E-1,-3.2467818E-1,-8.9157736E-1,-0E0,-8.356055E-1,7.331873E-2,8.0566233E-1,-3.5466197E-1,6.841397E-2,-5.2434945E-1,-1.0318031E0,-5.763508E-1,-1.116796E0,-3.9935786E-1,2.418521E-1,-6.7315876E-1,9.9202704E-1,4.3319988E-1,-0E0,-6.157167E-1,3.3166814E-1,-0E0,-0E0,-5.652042E-1,-3.1043378E-1,-0E0,-0E0,-1.88758E-1,-3.4038633E-1,-0E0,-0E0,-9.676751E-1,3.9026144E-1,-2.7194676E-1,-0E0,-2.3924987E-1,1.0651785E0,-0E0,8.402657E-1,-3.405224E-2,2.0328711E-1,-1.3332167E-2,-0E0,-6.6654384E-1,4.5609003E-1,-0E0,-0E0,-1.7141831E-1,-0E0,-1.0638852E-1,-0E0,-3.262843E-1,-3.5662755E-1,6.055746E-1,3.3714226E-1,-1.2889919E-1,1.0845592E0,-0E0,-0E0,1.1764613E0,1.5090498E-1,-6.973865E-1,-0E0,3.589642E-1,-6.8977785E-1,-0E0,-0E0,5.0726634E-1,-2.5352957E-2,3.1033775E-1,-2.71835E-1,-1.1023989E-1,-0E0,6.8817604E-1,4.0863478E-1,-0E0,-0E0,3.2607195E-1,1.1899229E0,-0E0,-1.18402556E-1,4.828436E-1,-8.200537E-1,-0E0,4.45301E-1,-0E0,-0E0,-7.080106E-1,1.6959354E-1,-0E0,-0E0,-7.288876E-2,2.0203038E-1,-0E0,-2.0621835E-1,-0E0,4.057435E-3,-9.229458E-2,-0E0,2.2809002E-1,1.4037602E-1,-0E0,3.5857671E-1,-0E0,-7.205509E-2,-0E0,1.813913E-1,-0E0,-0E0,-2.694429E-1,1.460303E-1,-0E0,-0E0,-2.16158E-1],"categories":[],"categories_nodes":[],"categories_segments":[],"categories_sizes":[],"default_left":[0,0,0,0,0,0,0,0,0,0,0,0,0,0,0,0,0,0,0,0,0,0,0,0,0,0,0,0,0,0,0,0,0,0,0,0,0,0,0,0,0,0,0,0,0,0,0,0,0,0,0,0,0,0,0,0,0,0,0,0,0,0,0,0,0,0,0,0,0,0,0,0,0,0,0,0,0,0,0,0,0,0,0,0,0,0,0,0,0,0,0,0,0,0,0,0,0,0,0,0,0,0,0,0,0,0,0,0,0,0,0,0,0,0,0,0,0,0,0],"id":3,"left_children":[1,3,5,7,9,11,13,15,-1,17,19,21,23,25,27,29,31,33,35,37,39,41,43,45,47,49,-1,-1,51,-1,-1,-1,-1,-1,-1,53,55,57,-1,59,-1,61,-1,63,65,67,-1,-1,69,71,-1,-1,-1,73,-1,-1,-1,75,77,79,-1,81,-1,-1,83,85,87,-1,89,91,-1,-1,93,95,97,-1,99,101,103,105,-1,-1,-1,107,-1,109,111,113,-1,115,-1,-1,117,-1,-1,-1,-1,-1,-1,-1,-1,-1,-1,-1,-1,-1,-1,-1,-1,-1,-1,-1,-1,-1,-1,-1,-1,-1,-1],"loss_changes":[4.795515E3,3.1545073E3,1.8784834E3,9.912012E1,1.9148374E3,2.2291978E3,2.5037909E2,6.820947E1,0E0,1.2400586E2,1.855819E3,4.925254E2,1.9588876E2,4.6969124E1,7.13009E1,9.89209E0,3.819281E1,1.9701782E1,1.9800848E2,2.0712378E3,2.023728E2,4.2618896E2,7.86063E2,1.3596578E1,4.043277E1,3.3624386E1,0E0,0E0,7.781189E0,0E0,0E0,0E0,0E0,0E0,0E0,1.716057E1,3.1103058E1,1.8409823E3,0E0,6.691202E1,0E0,3.6072754E1,0E0,6.491669E2,2.5867847E2,2.1108734E1,0E0,0E0,2.8631348E1,1.1964897E1,0E0,0E0,0E0,3.2869793E1,0E0,0E0,0E0,1.8184317E2,4.788181E2,8.624664E0,0E0,8.246094E0,0E0,0E0,1.3990234E1,1.402634E2,7.5183716E1,0E0,1.3348076E1,1.2245758E1,0E0,0E0,8.689995E0,1.5642751E1,8.712407E1,0E0,1.260961E2,1.927418E1,4.9172437E2,8.227062E0,0E0,0E0,0E0,8.5373535E0,0E0,1.3112335E1,3.9561203E1,2.1526978E1,0E0,7.7893257E0,0E0,0E0,9.28952E0,0E0,0E0,0E0,0E0,0E0,0E0,0E0,0E0,0E0,0E0,0E0,0E0,0E0,0E0,0E0,0E0,0E0,0E0,0E0,0E0,0E0,0E0,0E0,0E0,0E0,0E0],"parents":[2147483647,0,0,1,1,2,2,3,3,4,4,5,5,6,6,7,7,9,9,10,10,11,11,12,12,13,13,14,14,15,15,16,16,17,17,18,18,19,19,20,20,21,21,22,22,23,23,24,24,25,25,28,28,35,35,36,36,37,37,39,39,41,41,43,43,44,44,45,45,48,48,49,49,53,53,57,57,58,58,59,59,61,61,64,64,65,65,66,66,68,68,69,69,72,72,73,73,74,74,76,76,77,77,78,78,79,79,83,83,85,85,86,86,87,87,89,89,92,92],"right_children":[2,4,6,8,10,12,14,16,-1,18,20,22,24,26,28,30,32,34,36,38,40,42,44,46,48,50,-1,-1,52,-1,-1,-1,-1,-1,-1,54,56,58,-1,60,-1,62,-1,64,66,68,-1,-1,70,72,-1,-1,-1,74,-1,-1,-1,76,78,80,-1,82,-1,-1,84,86,88,-1,90,92,-1,-1,94,96,98,-1,100,102,104,106,-1,-1,-1,108,-1,110,112,114,-1,116,-1,-1,118,-1,-1,-1,-1,-1,-1,-1,-1,-1,-1,-1,-1,-1,-1,-1,-1,-1,-1,-1,-1,-1,-1,-1,-1,-1,-1],"split_conditions":[7.826087E-1,1.2158504E-1,9.411765E-1,7.3913044E-1,9.8881446E-2,8.2072717E-1,4.2436236E-1,1.06290214E-1,-0E0,3.478261E-1,6.53107E-1,7.030236E-1,8.5121727E-1,7.110806E-1,2.173913E-1,5.12514E-1,5.1989388E-2,2.9041964E-1,5.927671E-1,8.235294E-1,2.7836412E-1,9.802157E-2,6.4705884E-1,2.7396658E-1,2.9411766E-1,1E0,-0E0,-0E0,8.095379E-2,-3.1043378E-1,-0E0,-0E0,-1.88758E-1,-3.4038633E-1,-0E0,8.235294E-1,3.4081835E-1,2.173913E-1,-2.7194676E-1,7.755988E-1,-2.3924987E-1,2.5901467E-1,-0E0,8.695652E-1,7.365801E-1,8.695652E-1,-1.3332167E-2,-0E0,3.529412E-1,8.695652E-1,-0E0,-0E0,-1.7141831E-1,1.764706E-1,-1.0638852E-1,-0E0,-3.262843E-1,4.347826E-2,1.764706E-1,5.294118E-1,-1.2889919E-1,4.567967E-2,-0E0,-0E0,9.183746E-2,1.1126442E-1,7.058824E-1,-0E0,1.332835E-1,1.7941953E-1,-0E0,-0E0,2.5848863E-1,3.3793882E-1,4.9780124E-1,-2.71835E-1,2.2809653E-2,4.7826087E-1,1.8246128E-1,3.4074435E-1,-0E0,-0E0,3.2607195E-1,3.3053878E-1,-0E0,7.058824E-1,1E0,2.3043096E-1,-0E0,8.2608694E-1,-0E0,-0E0,4.912693E-3,1.6959354E-1,-0E0,-0E0,-7.288876E-2,2.0203038E-1,-0E0,-2.0621835E-1,-0E0,4.057435E-3,-9.229458E-2,-0E0,2.2809002E-1,1.4037602E-1,-0E0,3.5857671E-1,-0E0,-7.205509E-2,-0E0,1.813913E-1,-0E0,-0E0,-2.694429E-1,1.460303E-1,-0E0,-0E0,-2.16158E-1],"split_indices":[14,11,13,14,7,1,3,11,0,14,1,1,1,1,12,7,2,1,1,13,3,8,13,3,13,12,0,0,7,0,0,0,0,0,0,13,3,14,0,1,0,2,0,14,1,14,0,0,13,14,0,0,0,13,0,0,0,14,13,13,0,7,0,0,8,11,13,0,0,3,0,0,7,1,3,0,6,14,1,2,0,0,0,0,0,13,14,3,0,12,0,0,0,0,0,0,0,0,0,0,0,0,0,0,0,0,0,0,0,0,0,0,0,0,0,0,0,0,0],"split_type":[0,0,0,0,0,0,0,0,0,0,0,0,0,0,0,0,0,0,0,0,0,0,0,0,0,0,0,0,0,0,0,0,0,0,0,0,0,0,0,0,0,0,0,0,0,0,0,0,0,0,0,0,0,0,0,0,0,0,0,0,0,0,0,0,0,0,0,0,0,0,0,0,0,0,0,0,0,0,0,0,0,0,0,0,0,0,0,0,0,0,0,0,0,0,0,0,0,0,0,0,0,0,0,0,0,0,0,0,0,0,0,0,0,0,0,0,0,0,0],"sum_hessian":[3.882782E4,2.4714832E4,1.4112987E4,6.7893545E3,1.7925479E4,1.1719747E4,2.3932397E3,6.5351987E3,2.5415572E2,2.7058567E3,1.5219621E4,9.91171E3,1.8080371E3,5.7517773E2,1.8180621E3,4.2213296E3,2.313869E3,1.4537737E3,1.252083E3,1.2566435E4,2.6531868E3,6.3603706E3,3.5513394E3,6.9185486E2,1.1161823E3,4.508441E2,1.2433365E2,3.022483E1,1.7878373E3,4.206318E3,1.5011746E1,2.7596478E2,2.0379042E3,1.4237389E3,3.003484E1,8.278954E2,4.2418765E2,1.1234262E4,1.332173E3,4.4482706E2,2.2083599E3,5.8923096E3,4.6806122E2,2.0543267E3,1.4970127E3,3.1010324E2,3.8175162E2,7.282379E1,1.0433585E3,3.9975784E2,5.108623E1,1.4707508E1,1.7731298E3,6.9207495E2,1.358204E2,6.223619E1,3.6195145E2,2.37143E3,8.862831E3,2.1702156E2,2.2780551E2,5.7142505E3,1.780592E2,5.3763983E2,1.5166869E3,1.0094929E3,4.8751978E2,4.726161E1,2.6284164E2,1.0343887E3,8.969817E0,3.0214561E1,3.6954327E2,3.5378012E2,3.3829483E2,5.614857E2,1.8099442E3,9.890098E2,7.873822E3,1.9917456E2,1.7847004E1,1.7676373E1,5.6965737E3,1.4924309E3,2.4255953E1,3.2969006E2,6.7980286E2,4.6420178E2,2.3318003E1,2.378937E2,2.4947933E1,2.8192366E1,1.0061963E3,3.2461975E2,4.492353E1,8.556103E1,2.6821912E2,2.634514E2,7.484344E1,3.1279813E2,1.4971461E3,7.875248E2,2.0148505E2,5.724697E2,7.301352E3,1.8932616E2,9.848397E0,1.4851138E3,7.317134E0,3.0693756E2,2.27525E1,5.415001E2,1.3830275E2,5.06299E1,4.1357187E2,2.318598E2,6.033894E0,1.678159E1,9.894147E2],"tree_param":{"num_deleted":"0","num_feature":"15","num_nodes":"119","size_leaf_vector":"1"}},{"base_weights":[-2.0237444E-2,-2.0442562E-1,4.517299E-1,-8.231341E-1,-6.843367E-2,9.5522255E-1,6.3235186E-2,-1.0660728E0,-5.470072E-1,7.555534E-2,-5.300529E-1,3.4498447E-1,-0E0,2.2733216E-1,-2.7369872E-1,-3.233019E-1,-0E0,-2.693775E-1,-2.819589E-1,-5.275563E-1,2.3596533E-1,-1.0515392E0,-8.986938E-2,1.8704312E-1,-4.3593872E-2,-3.2748947E-1,5.7605267E-1,2.3694389E-1,-5.4081035E-1,-7.3602706E-1,-0E0,3.4988138E-1,-5.751376E-1,-0E0,-3.2288697E-1,2.2346365E-1,-7.3393875E-1,3.8966846E-1,-0E0,-0E0,-8.4161264E-1,6.9264454E-1,-0E0,5.4049844E-1,-0E0,-6.7756957E-1,-0E0,-0E0,-2.3243733E-1,4.274431E-1,-5.924074E-1,-1.4207417E-1,5.928508E-1,-6.096403E-1,-0E0,6.1484003E-1,-8.7969184E-2,-0E0,-2.2213121E-1,5.235682E-1,-0E0,8.369169E-1,-5.7053137E-1,-0E0,-2.7142277E-1,-0E0,7.930221E-1,-0E0,6.65587E-1,-0E0,-2.3119347E-1,7.3486036E-1,-0E0,-1.8738134E-1,-0E0,-7.041471E-1,-0E0,6.603724E-1,-1.6087867E-1,-0E0,-1.9715114E-1,7.566452E-1,-0E0,-1.7660236E-1,-0E0,-0E0,1.7394747E-1,2.8771117E-1,-0E0,-7.7740437E-1,-0E0,8.4166086E-1,-0E0,2.13736E-1,-0E0,2.434377E-1,-0E0,-2.2558644E-1,-0E0,-1.2810495E-1,4.49581E-2,-0E0,2.1333514E-1,-1.0305748E-1,-0E0,2.5745302E-1,-0E0,1.5965971E-1,-2.4067288E-2,-2.4624437E-1,-0E0,-0E0,2.63974E-1],"categories":[],"categories_nodes":[],"categories_segments":[],"categories_sizes":[],"default_left":[0,0,0,0,0,0,0,0,0,0,0,0,0,0,0,0,0,0,0,0,0,0,0,0,0,0,0,0,0,0,0,0,0,0,0,0,0,0,0,0,0,0,0,0,0,0,0,0,0,0,0,0,0,0,0,0,0,0,0,0,0,0,0,0,0,0,0,0,0,0,0,0,0,0,0,0,0,0,0,0,0,0,0,0,0,0,0,0,0,0,0,0,0,0,0,0,0,0,0,0,0,0,0,0,0,0,0,0,0,0,0,0,0],"id":4,"left_children":[1,3,5,7,9,11,13,15,17,19,21,-1,23,25,-1,-1,-1,27,-1,29,31,33,35,37,-1,39,41,43,45,47,49,51,53,-1,-1,55,57,59,-1,61,63,65,-1,67,-1,69,-1,-1,-1,71,73,75,77,79,-1,81,83,-1,-1,85,-1,87,89,-1,-1,-1,91,-1,93,-1,-1,95,-1,-1,-1,97,99,101,103,-1,-1,105,-1,-1,107,-1,-1,-1,-1,109,-1,111,-1,-1,-1,-1,-1,-1,-1,-1,-1,-1,-1,-1,-1,-1,-1,-1,-1,-1,-1,-1,-1],"loss_changes":[3.0872937E3,2.0683281E3,1.7910063E3,8.115259E1,1.4930375E3,7.209746E2,8.228478E2,2.1044434E1,9.3306885E1,1.5256407E3,1.0703125E3,0E0,2.1955639E1,1.0057637E3,0E0,0E0,0E0,2.6123248E2,0E0,2.595172E2,1.1669252E3,5.475586E1,6.8376355E2,3.679406E1,0E0,3.088745E2,2.8107153E2,6.029316E1,8.720755E1,3.575183E1,2.9676215E2,1.4381069E3,4.9268585E1,0E0,0E0,3.0419604E2,7.616333E0,2.856057E1,0E0,5.1895483E2,6.699219E1,2.5970642E2,0E0,2.872126E1,0E0,8.090225E1,0E0,0E0,0E0,9.1041176E1,1.8128952E1,3.0965753E2,4.702527E2,3.061676E1,0E0,1.2099744E2,6.0479168E1,0E0,0E0,1.0982529E1,0E0,4.1634064E1,8.869064E1,0E0,0E0,0E0,1.09227905E2,0E0,1.2636406E1,0E0,0E0,2.551155E1,0E0,0E0,0E0,3.5014862E1,1.7430858E2,2.128689E2,2.6630297E1,0E0,0E0,1.0941504E2,0E0,0E0,4.5895348E1,0E0,0E0,0E0,0E0,2.8329285E1,0E0,6.2679443E1,0E0,0E0,0E0,0E0,0E0,0E0,0E0,0E0,0E0,0E0,0E0,0E0,0E0,0E0,0E0,0E0,0E0,0E0,0E0,0E0,0E0],"parents":[2147483647,0,0,1,1,2,2,3,3,4,4,5,5,6,6,7,7,8,8,9,9,10,10,12,12,13,13,17,17,19,19,20,20,21,21,22,22,23,23,25,25,26,26,27,27,28,28,29,29,30,30,31,31,32,32,35,35,36,36,37,37,39,39,40,40,41,41,43,43,45,45,49,49,50,50,51,51,52,52,53,53,55,55,56,56,59,59,61,61,62,62,66,66,68,68,71,71,75,75,76,76,77,77,78,78,81,81,84,84,89,89,91,91],"right_children":[2,4,6,8,10,12,14,16,18,20,22,-1,24,26,-1,-1,-1,28,-1,30,32,34,36,38,-1,40,42,44,46,48,50,52,54,-1,-1,56,58,60,-1,62,64,66,-1,68,-1,70,-1,-1,-1,72,74,76,78,80,-1,82,84,-1,-1,86,-1,88,90,-1,-1,-1,92,-1,94,-1,-1,96,-1,-1,-1,98,100,102,104,-1,-1,106,-1,-1,108,-1,-1,-1,-1,110,-1,112,-1,-1,-1,-1,-1,-1,-1,-1,-1,-1,-1,-1,-1,-1,-1,-1,-1,-1,-1,-1,-1],"split_conditions":[8.695652E-1,2.1981172E-2,7.0178926E-1,3.478261E-1,6.6202784E-1,1E0,1E0,2.9853642E-1,8.235294E-1,1.1181367E-1,2.7981317E-1,3.4498447E-1,5.466139E-1,2.5385207E-1,-2.7369872E-1,-3.233019E-1,-0E0,3.638171E-1,-2.819589E-1,5.652174E-1,5.672823E-1,1.9700967E-1,8.395919E-2,2.3748182E-1,-4.3593872E-2,8.409543E-1,1E0,1.4951627E-1,2.9411766E-1,9.322779E-2,5.1846963E-1,3.478261E-1,6.4424247E-1,-0E0,-3.2288697E-1,3.8346526E-1,2.2119613E-1,1E0,-0E0,6.4705884E-1,2.9411766E-1,8.683273E-2,-0E0,1.08582206E-1,-0E0,8.1794195E-2,-0E0,-0E0,-2.3243733E-1,6.222664E-1,6.4424247E-1,1.2298682E-1,8.235294E-1,5.4274356E-1,-0E0,8.2107353E-1,6.627983E-1,-0E0,-2.2213121E-1,1.9014288E-2,-0E0,8.2107353E-1,1.5238908E-1,-0E0,-2.7142277E-1,-0E0,9.0059644E-1,-0E0,4.472087E-1,-0E0,-2.3119347E-1,1.03213936E-1,-0E0,-1.8738134E-1,-0E0,2.810337E-1,8.695652E-2,1.764706E-1,7.3913044E-1,-0E0,-1.9715114E-1,9.130435E-1,-0E0,-1.7660236E-1,6.8190855E-1,-0E0,1.7394747E-1,2.8771117E-1,-0E0,7.058824E-1,-0E0,7.035777E-1,-0E0,2.13736E-1,-0E0,2.434377E-1,-0E0,-2.2558644E-1,-0E0,-1.2810495E-1,4.49581E-2,-0E0,2.1333514E-1,-1.0305748E-1,-0E0,2.5745302E-1,-0E0,1.5965971E-1,-2.4067288E-2,-2.4624437E-1,-0E0,-0E0,2.63974E-1],"split_indices":[14,6,4,14,4,13,13,1,13,11,9,0,3,9,0,0,0,4,0,14,3,3,8,7,0,4,14,3,13,3,3,14,4,0,0,3,3,12,0,13,13,11,0,11,0,3,0,0,0,4,4,7,13,4,0,4,4,0,0,6,0,4,11,0,0,0,4,0,9,0,0,8,0,0,0,1,14,13,14,0,0,12,0,0,4,0,0,0,0,13,0,4,0,0,0,0,0,0,0,0,0,0,0,0,0,0,0,0,0,0,0,0,0],"split_type":[0,0,0,0,0,0,0,0,0,0,0,0,0,0,0,0,0,0,0,0,0,0,0,0,0,0,0,0,0,0,0,0,0,0,0,0,0,0,0,0,0,0,0,0,0,0,0,0,0,0,0,0,0,0,0,0,0,0,0,0,0,0,0,0,0,0,0,0,0,0,0,0,0,0,0,0,0,0,0,0,0,0,0,0,0,0,0,0,0,0,0,0,0,0,0,0,0,0,0,0,0,0,0,0,0,0,0,0,0,0,0,0,0],"sum_hessian":[3.5902812E4,2.6033652E4,9.869161E3,4.508984E3,2.1524668E4,4.1444062E3,5.724755E3,2.133741E3,2.3752432E3,1.6181163E4,5.3435063E3,3.404676E3,7.397304E2,5.021089E3,7.036664E2,2.1061594E3,2.7581583E1,1.5966748E3,7.7856836E2,3.219801E3,1.2961361E4,2.3030112E3,3.0404949E3,4.542477E2,2.8548267E2,1.7862698E3,3.2348188E3,3.8111246E2,1.2155623E3,2.1329058E3,1.0868954E3,1.1513591E4,1.4477705E3,5.746398E1,2.2455474E3,1.9026022E3,1.1378927E3,3.464928E2,1.0775493E2,1.0802667E3,7.06003E2,2.823119E3,4.1169992E2,2.7911526E2,1.019972E2,9.641127E2,2.5144963E2,1.4859137E2,1.9843143E3,5.0534006E2,5.815553E2,3.6201172E3,7.893474E3,1.4210277E3,2.6742737E1,1.0377506E3,8.648515E2,6.005091E0,1.1318876E3,2.9583414E2,5.065866E1,4.4454877E2,6.35718E2,1.3331398E1,6.926716E2,2.5663412E2,2.5664849E3,3.04368E1,2.4867845E2,8.273978E1,8.8137286E2,3.391439E2,1.6619614E2,5.6955E2,1.2005311E1,7.713006E2,2.8488164E3,7.4113794E3,4.8209473E2,1.2731485E2,1.2937129E3,8.9635394E2,1.4139673E2,1.9321817E2,6.716333E2,2.2070808E1,2.7376334E2,3.8365814E2,6.0890625E1,4.888565E2,1.4686148E2,2.4325469E3,1.3393806E2,2.4185199E2,6.826474E0,3.167682E2,2.2375706E1,7.381904E2,3.311021E1,6.892447E2,2.1595718E3,5.9913715E2,6.812242E3,3.309018E2,1.511929E2,8.4523047E2,5.1123447E1,1.4952812E2,5.221052E2,4.804987E2,8.35783E0,1.2600189E2,2.306545E3],"tree_param":{"num_deleted":"0","num_feature":"15","num_nodes":"113","size_leaf_vector":"1"}},{"base_weights":[-2.4447586E-2,-2.0471019E-1,2.9081744E-1,-5.3441757E-1,-1.9972453E-2,7.1646976E-1,2.6205905E-2,-2.2855447E-1,-3.2526743E-1,1.18967675E-1,-4.1026962E-1,9.1668457E-1,-0E0,1.3670526E-1,-1.9342506E-1,-5.9773304E-2,-7.614009E-1,-2.7104896E-1,3.805524E-1,-2.6799896E-1,-3.2562524E-1,2.8846577E-1,-0E0,-3.9983842E-1,3.9569035E-1,2.854709E-1,-4.4165322E-1,-0E0,-5.979957E-1,-7.9875237E-1,-0E0,-8.400216E-1,-0E0,5.199173E-1,-5.2203304E-1,-2.8682634E-2,-2.1085723E-1,-1.3589023E-1,-0E0,5.4694587E-1,-0E0,-1.8260579E-1,4.615072E-1,-0E0,-6.3530713E-1,-1.7671986E-1,4.1737536E-1,-7.142756E-1,-0E0,-0E0,-8.1712234E-1,-8.5950047E-1,-0E0,-4.8233718E-1,4.514833E-2,-0E0,6.2568104E-1,-1.7584515E-1,-0E0,4.15026E-1,-2.4316163E-1,6.578099E-1,-0E0,-0E0,-4.544623E-1,-0E0,6.607415E-1,-0E0,-2.041286E-1,-0E0,-4.2345417E-1,7.1205074E-1,-0E0,-0E0,-7.4286133E-1,-2.4968751E-1,-0E0,-2.639271E-1,-0E0,-0E0,-5.1958895E-1,-4.4259753E-2,2.8522056E-1,2.089862E-1,-3.8896528E-1,-0E0,6.968128E-1,7.1661276E-1,-0E0,-5.7714343E-1,-0E0,-0E0,7.195533E-1,4.5928103E-1,-6.74393E-2,-1.7384517E-1,-0E0,3.5911474E-1,-2.5419444E-1,7.813834E-1,-0E0,-0E0,4.143823E-2,-0E0,-1.4553525E-1,-0E0,2.4557254E-1,-0E0,-2.312303E-1,-1.6592623E-1,-0E0,-0E0,-7.105921E-2,2.3486261E-1,-0E0,1.3360576E-1,-0E0,-1.3139087E-1,-0E0,-0E0,2.1877539E-1,2.5112492E-1,-0E0,-1.85804E-1,-0E0,1.8404423E-1,-0E0,2.3341496E-1,-0E0,1.6801602E-1,-0E0,-0E0,-6.496792E-2,1.7560118E-1,-0E0,-1.288567E-1,-0E0,2.5325772E-1,-0E0],"categories":[],"categories_nodes":[],"categories_segments":[],"categories_sizes":[],"default_left":[0,0,0,0,0,0,0,0,0,0,0,0,0,0,0,0,0,0,0,0,0,0,0,0,0,0,0,0,0,0,0,0,0,0,0,0,0,0,0,0,0,0,0,0,0,0,0,0,0,0,0,0,0,0,0,0,0,0,0,0,0,0,0,0,0,0,0,0,0,0,0,0,0,0,0,0,0,0,0,0,0,0,0,0,0,0,0,0,0,0,0,0,0,0,0,0,0,0,0,0,0,0,0,0,0,0,0,0,0,0,0,0,0,0,0,0,0,0,0,0,0,0,0,0,0,0,0,0,0,0,0,0,0,0,0,0,0,0,0],"id":5,"left_children":[1,3,5,7,9,11,13,-1,15,17,19,21,23,25,-1,27,29,31,33,35,-1,-1,-1,37,39,41,43,45,47,49,-1,51,53,55,57,59,-1,-1,-1,61,-1,63,65,-1,67,69,71,73,-1,-1,75,77,-1,79,81,83,85,-1,-1,87,89,91,-1,93,95,97,99,-1,-1,101,103,105,-1,-1,107,-1,-1,-1,-1,-1,109,111,113,115,117,-1,119,121,-1,123,125,-1,127,129,131,-1,-1,133,135,137,-1,-1,-1,-1,-1,-1,-1,-1,-1,-1,-1,-1,-1,-1,-1,-1,-1,-1,-1,-1,-1,-1,-1,-1,-1,-1,-1,-1,-1,-1,-1,-1,-1,-1,-1,-1,-1,-1,-1],"loss_changes":[1.8555479E3,1.2141917E3,1.2134124E3,2.0004883E2,7.905701E2,4.9976514E2,4.7905856E2,0E0,3.666768E2,1.0301705E3,1.8833185E2,1.3025635E2,1.6894211E2,5.404443E2,0E0,1.5970146E2,3.321588E1,4.956449E2,7.754928E2,2.5191858E2,0E0,0E0,0E0,1.4484795E1,7.704339E1,4.8173688E2,8.069646E1,1.9773859E2,5.9763992E1,2.9561462E1,0E0,1.6214539E1,1.0435956E2,2.6030237E2,3.9465775E1,2.036354E2,0E0,0E0,0E0,5.377086E1,0E0,1.0227466E2,3.9624847E2,0E0,2.0581268E1,9.805176E1,1.5816307E2,1.280954E1,0E0,0E0,1.3076355E1,1.1520081E1,0E0,1.2329964E1,8.154057E1,7.205466E1,2.1665466E2,0E0,0E0,1.01369896E2,2.1981522E2,2.8372803E1,0E0,5.170086E1,1.3543304E1,1.0735701E2,2.2394775E2,0E0,0E0,8.66737E0,3.0829697E1,6.968298E1,0E0,0E0,1.0418716E1,0E0,0E0,0E0,0E0,0E0,8.939682E0,4.0340515E1,9.048713E1,6.81282E1,8.536865E0,0E0,1.1468823E2,3.9489532E1,0E0,4.1611725E1,5.5934654E1,0E0,1.5687622E1,1.6893589E1,7.9708104E0,0E0,0E0,5.6405464E1,7.699579E1,8.2303955E1,0E0,0E0,0E0,0E0,0E0,0E0,0E0,0E0,0E0,0E0,0E0,0E0,0E0,0E0,0E0,0E0,0E0,0E0,0E0,0E0,0E0,0E0,0E0,0E0,0E0,0E0,0E0,0E0,0E0,0E0,0E0,0E0,0E0,0E0,0E0,0E0,0E0,0E0,0E0],"parents":[2147483647,0,0,1,1,2,2,3,3,4,4,5,5,6,6,8,8,9,9,10,10,11,11,12,12,13,13,15,15,16,16,17,17,18,18,19,19,23,23,24,24,25,25,26,26,27,27,28,28,29,29,31,31,32,32,33,33,34,34,35,35,39,39,41,41,42,42,44,44,45,45,46,46,47,47,50,50,51,51,53,53,54,54,55,55,56,56,59,59,60,60,61,61,63,63,64,64,65,65,66,66,69,69,70,70,71,71,74,74,80,80,81,81,82,82,83,83,84,84,86,86,87,87,89,89,90,90,92,92,93,93,94,94,97,97,98,98,99,99],"right_children":[2,4,6,8,10,12,14,-1,16,18,20,22,24,26,-1,28,30,32,34,36,-1,-1,-1,38,40,42,44,46,48,50,-1,52,54,56,58,60,-1,-1,-1,62,-1,64,66,-1,68,70,72,74,-1,-1,76,78,-1,80,82,84,86,-1,-1,88,90,92,-1,94,96,98,100,-1,-1,102,104,106,-1,-1,108,-1,-1,-1,-1,-1,110,112,114,116,118,-1,120,122,-1,124,126,-1,128,130,132,-1,-1,134,136,138,-1,-1,-1,-1,-1,-1,-1,-1,-1,-1,-1,-1,-1,-1,-1,-1,-1,-1,-1,-1,-1,-1,-1,-1,-1,-1,-1,-1,-1,-1,-1,-1,-1,-1,-1,-1,-1,-1,-1],"split_conditions":[7.826087E-1,1.3197598E-1,6.8190855E-1,3.7430942E-2,6.222664E-1,9.411765E-1,1E0,-2.2855447E-1,6.222664E-1,3.478261E-1,9.130435E-1,1.0785156E-1,8.695652E-1,8.60835E-1,-1.9342506E-1,8.235294E-1,2.3228493E-1,2.7317433E-2,8.235294E-1,7.813121E-1,-3.2562524E-1,2.8846577E-1,-0E0,6.627983E-1,1E0,8.695652E-1,3.535003E-2,3.4581673E-1,6.042561E-1,3.310728E-3,-0E0,3.1757978E-1,2.9102366E-2,1.764706E-1,6.042561E-1,5.294118E-1,-2.1085723E-1,-1.3589023E-1,-0E0,1E0,-0E0,5.882353E-1,1.1072515E-1,-0E0,2.9411766E-1,7.177577E-2,9.6416675E-2,8.757409E-3,-0E0,-0E0,8.355697E-2,3.095669E-1,-0E0,8.695652E-2,1.7391305E-1,4.7826087E-1,1.3602557E-2,-1.7584515E-1,-0E0,7.614314E-1,6.956522E-1,6.5974355E-2,-0E0,8.011928E-1,7.035777E-1,6.4705884E-1,1E0,-0E0,-2.041286E-1,1.8341075E-1,3.529412E-1,1.764706E-1,-0E0,-0E0,2.173913E-1,-2.4968751E-1,-0E0,-2.639271E-1,-0E0,-0E0,2.6869148E-1,8.9825846E-2,4.117647E-1,4.0357852E-1,4.831014E-1,-0E0,1.794201E-2,8.2608694E-1,-0E0,7.826087E-1,5.882353E-1,-0E0,1.9955222E-1,8.2608694E-1,7.00235E-2,-1.7384517E-1,-0E0,8.2107353E-1,7.058824E-1,9.130435E-1,-0E0,-0E0,4.143823E-2,-0E0,-1.4553525E-1,-0E0,2.4557254E-1,-0E0,-2.312303E-1,-1.6592623E-1,-0E0,-0E0,-7.105921E-2,2.3486261E-1,-0E0,1.3360576E-1,-0E0,-1.3139087E-1,-0E0,-0E0,2.1877539E-1,2.5112492E-1,-0E0,-1.85804E-1,-0E0,1.8404423E-1,-0E0,2.3341496E-1,-0E0,1.6801602E-1,-0E0,-0E0,-6.496792E-2,1.7560118E-1,-0E0,-1.288567E-1,-0E0,2.5325772E-1,-0E0],"split_indices":[14,11,4,8,4,13,13,0,4,14,12,8,14,4,0,13,0,6,13,4,0,0,0,4,12,14,0,4,4,0,0,11,0,13,4,13,0,0,0,14,0,13,11,0,13,2,8,0,0,0,6,4,0,12,14,14,10,0,0,4,14,11,0,4,4,13,14,0,0,4,13,13,0,0,12,0,0,0,0,0,4,5,13,4,4,0,0,12,0,12,13,0,5,12,10,0,0,4,13,12,0,0,0,0,0,0,0,0,0,0,0,0,0,0,0,0,0,0,0,0,0,0,0,0,0,0,0,0,0,0,0,0,0,0,0,0,0,0,0],"split_type":[0,0,0,0,0,0,0,0,0,0,0,0,0,0,0,0,0,0,0,0,0,0,0,0,0,0,0,0,0,0,0,0,0,0,0,0,0,0,0,0,0,0,0,0,0,0,0,0,0,0,0,0,0,0,0,0,0,0,0,0,0,0,0,0,0,0,0,0,0,0,0,0,0,0,0,0,0,0,0,0,0,0,0,0,0,0,0,0,0,0,0,0,0,0,0,0,0,0,0,0,0,0,0,0,0,0,0,0,0,0,0,0,0,0,0,0,0,0,0,0,0,0,0,0,0,0,0,0,0,0,0,0,0,0,0,0,0,0,0],"sum_hessian":[3.2856848E4,2.1180826E4,1.167602E4,7.339318E3,1.3841509E4,4.277094E3,7.3989253E3,3.2013997E3,4.1379185E3,9.949173E3,3.8923357E3,3.2072842E3,1.06981E3,6.528449E3,8.7047614E2,2.7678481E3,1.3700702E3,3.7838252E3,6.1653477E3,3.383211E3,5.0912476E2,3.0557742E3,1.5151001E2,3.7597226E2,6.938378E2,5.3814326E3,1.1470167E3,2.2942268E3,4.7362128E2,1.2969352E3,7.3134964E1,1.0957953E3,2.68803E3,5.4724253E3,6.929223E2,2.3858965E3,9.973145E2,3.6340417E2,1.2568092E1,6.203846E2,7.345325E1,1.2580453E3,4.123387E3,3.9308386E2,7.5393286E2,1.4132168E3,8.8101013E2,4.4891895E2,2.4702322E1,1.3412178E1,1.2835231E3,1.0686106E3,2.7184755E1,4.2813162E2,2.2598984E3,1.0289972E3,4.443428E3,6.643576E2,2.8564684E1,5.691352E2,1.8167614E3,5.529616E2,6.7422935E1,5.6027637E2,6.977689E2,1.2044617E3,2.9189255E3,5.230392E1,7.016289E2,6.207907E2,7.924261E2,6.142333E2,2.6677682E2,1.0720047E1,4.381989E2,1.256017E3,2.7506037E1,1.0348229E3,3.3787666E1,1.3605258E1,4.1452637E2,1.2312201E3,1.0286782E3,7.782088E2,2.5078842E2,4.1479688E2,4.028631E3,3.8787204E2,1.8126314E2,9.818909E2,8.348704E2,3.6130024E1,5.168316E2,2.3749223E2,3.2278418E2,4.6925284E2,2.2851605E2,4.570169E2,7.474448E2,2.4537805E3,4.651451E2,1.6713974E2,4.5365094E2,5.779692E1,7.3462915E2,4.5622852E1,5.686104E2,1.3663858E1,4.2453503E2,3.9498358E2,1.9542767E1,4.698186E2,7.614015E2,2.8362885E2,7.450494E2,5.143657E2,2.6384308E2,2.4217828E2,8.610138E0,1.348289E2,3.8938022E3,3.4045065E2,4.7421394E1,9.6103125E2,2.0859653E1,1.4798752E2,6.8688293E2,4.6786145E2,4.897015E1,2.1336794E2,2.4124294E1,1.22093E2,2.0069116E2,3.3625812E2,1.20758804E2,6.7871594E2,6.872887E1,2.217632E3,2.3614835E2],"tree_param":{"num_deleted":"0","num_feature":"15","num_nodes":"139","size_leaf_vector":"1"}},{"base_weights":[-2.5089718E-2,-5.678395E-1,6.385159E-2,-3.5046846E-1,-8.060481E-1,1.4449696E-1,-5.016164E-1,-1.8471202E-1,-0E0,-8.1492203E-1,-0E0,-4.4329816E-1,2.3962696E-1,-2.1223502E-1,-7.6560146E-1,1.0511506E-1,-0E0,-0E0,-2.4804732E-1,-0E0,-6.875293E-1,8.263914E-3,4.134728E-1,-0E0,-2.8280294E-1,-0E0,-2.3329286E-1,2.6480147E-1,-0E0,9.250404E-2,-3.4681085E-2,-7.019669E-1,-0E0,1.7295732E-1,-4.9624443E-1,5.0809604E-1,-0E0,-0E0,-1.38289E-1,3.610685E-1,-0E0,-0E0,3.013084E-1,-2.1681051E-1,-0E0,-2.4855033E-1,2.8751612E-1,-0E0,-5.9467274E-1,-0E0,5.7541454E-1,2.8160217E-1,-3.8201886E-1,-3.4032688E-1,4.251417E-2,4.4768888E-1,-0E0,4.913114E-1,-0E0,-0E0,-1.6445298E-1,4.1263592E-1,-4.8855808E-2,-7.6458615E-1,-5.2074254E-2,1.5460564E-1,-6.1030306E-2,6.6457057E-1,1.2111484E-1,6.159669E-1,-0E0,-0E0,-6.045187E-1,-1.17208086E-1,-0E0,1.7531763E-1,-0E0,1.6451748E-1,-0E0,-0E0,1.7672761E-1,1.3680194E-1,-0E0,2.6846858E-2,-8.707507E-2,-2.6198235E-1,-0E0,-0E0,-6.888328E-2,8.47624E-2,-0E0,-7.381631E-2,-0E0,2.2541846E-1,2.4207259E-2,1.3600382E-1,-0E0,-0E0,1.9189192E-1,-1.8830998E-1,-0E0,-0E0,9.162755E-2],"categories":[],"categories_nodes":[],"categories_segments":[],"categories_sizes":[],"default_left":[0,0,0,0,0,0,0,0,0,0,0,0,0,0,0,0,0,0,0,0,0,0,0,0,0,0,0,0,0,0,0,0,0,0,0,0,0,0,0,0,0,0,0,0,0,0,0,0,0,0,0,0,0,0,0,0,0,0,0,0,0,0,0,0,0,0,0,0,0,0,0,0,0,0,0,0,0,0,0,0,0,0,0,0,0,0,0,0,0,0,0,0,0,0,0,0,0,0,0,0,0,0,0],"id":6,"left_children":[1,3,5,7,9,11,13,-1,15,17,-1,19,21,23,25,27,-1,-1,-1,29,31,33,35,-1,37,-1,-1,39,-1,41,-1,43,-1,45,47,49,51,53,-1,55,-1,-1,57,-1,-1,59,61,-1,63,65,67,69,71,73,75,77,-1,79,-1,-1,-1,81,83,85,87,89,91,93,95,97,-1,-1,99,-1,-1,101,-1,-1,-1,-1,-1,-1,-1,-1,-1,-1,-1,-1,-1,-1,-1,-1,-1,-1,-1,-1,-1,-1,-1,-1,-1,-1,-1],"loss_changes":[1.5421677E3,7.508923E1,1.1369255E3,3.0231296E2,1.7304321E1,1.2565796E3,9.768616E1,0E0,8.423392E0,1.2900269E1,0E0,3.5932904E2,7.4549927E2,3.515586E1,7.7177124E0,3.448443E1,0E0,0E0,0E0,9.461683E0,3.3752502E1,6.9584155E2,4.604983E2,0E0,2.7755608E1,0E0,0E0,2.929187E1,0E0,4.5290646E1,0E0,9.103455E0,0E0,3.3954013E2,1.3048282E2,2.8280273E2,2.1577106E2,3.8175915E1,0E0,2.9150414E1,0E0,0E0,6.0572075E1,0E0,0E0,1.549342E2,2.8962592E2,0E0,4.970923E1,1.55816E1,2.1464478E2,1.311542E2,1.1389809E2,7.9104233E0,1.0033928E1,2.849047E1,0E0,3.9172752E1,0E0,0E0,0E0,1.140871E2,6.920927E1,3.1331238E1,1.9934502E1,2.7759192E1,2.0223915E1,2.1043335E2,1.0104697E2,1.3754898E1,0E0,0E0,1.2628098E1,0E0,0E0,1.3585654E1,0E0,0E0,0E0,0E0,0E0,0E0,0E0,0E0,0E0,0E0,0E0,0E0,0E0,0E0,0E0,0E0,0E0,0E0,0E0,0E0,0E0,0E0,0E0,0E0,0E0,0E0,0E0],"parents":[2147483647,0,0,1,1,2,2,3,3,4,4,5,5,6,6,8,8,9,9,11,11,12,12,13,13,14,14,15,15,19,19,20,20,21,21,22,22,24,24,27,27,29,29,31,31,33,33,34,34,35,35,36,36,37,37,39,39,42,42,45,45,46,46,48,48,49,49,50,50,51,51,52,52,53,53,54,54,55,55,57,57,61,61,62,62,63,63,64,64,65,65,66,66,67,67,68,68,69,69,72,72,75,75],"right_children":[2,4,6,8,10,12,14,-1,16,18,-1,20,22,24,26,28,-1,-1,-1,30,32,34,36,-1,38,-1,-1,40,-1,42,-1,44,-1,46,48,50,52,54,-1,56,-1,-1,58,-1,-1,60,62,-1,64,66,68,70,72,74,76,78,-1,80,-1,-1,-1,82,84,86,88,90,92,94,96,98,-1,-1,100,-1,-1,102,-1,-1,-1,-1,-1,-1,-1,-1,-1,-1,-1,-1,-1,-1,-1,-1,-1,-1,-1,-1,-1,-1,-1,-1,-1,-1,-1],"split_conditions":[1.8464723E-1,4.7826087E-1,5.408971E-1,2.3203531E-1,4.7060394E-1,1.764706E-1,6.253298E-1,-1.8471202E-1,1.5479332E-1,3.299725E-2,-0E0,1.2489006E-1,2.940542E-1,5.7158315E-1,6.461259E-3,1.0450152E-1,-0E0,-0E0,-2.4804732E-1,4.7826087E-1,4.4503906E-1,3.658751E-1,9.130435E-1,-0E0,6.5217394E-1,-0E0,-2.3329286E-1,8.235294E-1,-0E0,9.799253E-2,-3.4681085E-2,4.4449434E-2,-0E0,1.759727E-1,6.276373E-1,2.9414433E-1,4.0545294E-1,2.6086956E-1,-1.38289E-1,3.227078E-1,-0E0,-0E0,7.826087E-1,-2.1681051E-1,-0E0,4.117647E-1,7.458597E-1,-0E0,9.130435E-1,1.7941953E-1,8.8710696E-2,6.3744473E-1,5.943181E-1,1.9527954E-1,6.790032E-1,6.192926E-2,-0E0,2.013136E-2,-0E0,-0E0,-1.6445298E-1,8.235294E-1,2.4978012E-1,2.7736038E-1,7.030236E-1,7.058824E-1,6.8697825E-2,8.8235295E-1,6.172817E-1,4.347826E-1,-0E0,-0E0,5.6038064E-1,-1.17208086E-1,-0E0,6.956522E-1,-0E0,1.6451748E-1,-0E0,-0E0,1.7672761E-1,1.3680194E-1,-0E0,2.6846858E-2,-8.707507E-2,-2.6198235E-1,-0E0,-0E0,-6.888328E-2,8.47624E-2,-0E0,-7.381631E-2,-0E0,2.2541846E-1,2.4207259E-2,1.3600382E-1,-0E0,-0E0,1.9189192E-1,-1.8830998E-1,-0E0,-0E0,9.162755E-2],"split_indices":[9,14,3,1,0,13,3,0,3,5,0,3,9,1,0,0,0,0,0,14,1,3,12,0,12,0,0,13,0,7,0,8,0,1,1,1,3,12,0,1,0,0,12,0,0,13,1,0,14,3,8,1,1,0,1,6,0,0,0,0,0,13,3,7,1,13,8,13,1,14,0,0,9,0,0,14,0,0,0,0,0,0,0,0,0,0,0,0,0,0,0,0,0,0,0,0,0,0,0,0,0,0,0],"split_type":[0,0,0,0,0,0,0,0,0,0,0,0,0,0,0,0,0,0,0,0,0,0,0,0,0,0,0,0,0,0,0,0,0,0,0,0,0,0,0,0,0,0,0,0,0,0,0,0,0,0,0,0,0,0,0,0,0,0,0,0,0,0,0,0,0,0,0,0,0,0,0,0,0,0,0,0,0,0,0,0,0,0,0,0,0,0,0,0,0,0,0,0,0,0,0,0,0,0,0,0,0,0,0],"sum_hessian":[3.0515436E4,4.512933E3,2.6002504E4,2.6612083E3,1.8517249E3,2.2969422E4,3.0330823E3,1.6592736E3,1.0019348E3,1.8376598E3,1.4065177E1,2.9986602E3,1.9970762E4,1.6950609E3,1.3380214E3,7.6172156E2,2.4021321E2,3.3674286E1,1.8039855E3,9.922345E2,2.0064258E3,8.906392E3,1.1064369E4,3.0109933E2,1.3939615E3,2.8373432E1,1.3096478E3,6.1128827E2,1.5043329E2,7.931046E2,1.9912991E2,1.9932128E3,1.3212957E1,6.9195264E3,1.9868658E3,9.110591E3,1.9537781E3,7.390642E2,6.5489734E2,5.53171E2,5.8117283E1,2.2005646E2,5.7304816E2,1.897874E3,9.533874E1,1.2229974E3,5.696529E3,2.3450446E2,1.7523613E3,1.1530366E3,7.957554E3,1.0429808E3,9.1079724E2,3.224632E2,4.16601E2,5.0504202E2,4.812897E1,4.660647E2,1.0698345E2,4.5648044E2,7.6651697E2,4.448843E3,1.2476862E3,1.1419994E3,6.10362E2,5.5849335E2,5.9454333E2,6.3997505E3,1.5578033E3,5.631623E2,4.7981857E2,2.357822E2,6.75015E2,2.9635168E2,2.6111504E1,3.5035483E2,6.624621E1,4.3111346E2,7.3928566E1,2.9191633E1,4.3687305E2,4.191366E3,2.574763E2,4.3261374E2,8.150724E2,9.1635803E2,2.2564134E2,2.0145654E2,4.0890546E2,5.145133E2,4.3980026E1,3.7002686E2,2.2451646E2,5.366866E3,1.0328846E3,6.0225586E2,9.555474E2,7.3403687E0,5.558219E2,6.58083E2,1.6932007E1,8.97044E1,2.6065042E2],"tree_param":{"num_deleted":"0","num_feature":"15","num_nodes":"103","size_leaf_vector":"1"}},{"base_weights":[-2.7092662E-2,-5.4511684E-1,3.5871595E-2,-2.1389975E-1,1.936378E-1,-2.506111E-1,1.7089786E-1,1.3773501E-1,-0E0,-8.145838E-3,-5.1018E-1,2.6658934E-1,-2.2305404E-1,-1.7955534E-1,4.837189E-2,-2.4327423E-1,-4.600393E-2,-0E0,3.7965927E-1,-1.70641E-1,1.1511152E-1,-2.6160735E-1,2.5582147E-1,3.3579245E-1,-2.6768088E-1,1.5887308E-1,-9.945755E-2,5.303191E-1,1.4268805E-2,3.2059592E-1,-7.290377E-2,-0E0,-3.5171387E-1,-1.7844526E-1,3.7970302E-1,4.6634603E-1,-0E0,-0E0,-4.6653652E-1,-1.425661E-1,3.150785E-1,6.423889E-1,-0E0,3.7445435E-1,-2.3164201E-1,-0E0,-1.5985085E-1,-0E0,-1.2671776E-1,-0E0,-9.049038E-2,5.297296E-1,-0E0,1.5607482E-1,-0E0,-0E0,-5.1843864E-1,-7.945753E-2,-0E0,4.0100074E-1,-0E0,6.801847E-1,-0E0,-0E0,4.661072E-1,-6.0946673E-1,-0E0,1.8008727E-1,-0E0,1.6123177E-2,-9.3614794E-2,-0E0,-1.6258171E-1,-0E0,1.3892232E-1,-0E0,2.1058217E-1,1.5802348E-1,-0E0,-1.9351448E-1,-0E0,-6.2232014E-2,1.349047E-2],"categories":[],"categories_nodes":[],"categories_segments":[],"categories_sizes":[],"default_left":[0,0,0,0,0,0,0,0,0,0,0,0,0,0,0,0,0,0,0,0,0,0,0,0,0,0,0,0,0,0,0,0,0,0,0,0,0,0,0,0,0,0,0,0,0,0,0,0,0,0,0,0,0,0,0,0,0,0,0,0,0,0,0,0,0,0,0,0,0,0,0,0,0,0,0,0,0,0,0,0,0,0,0],"id":7,"left_children":[1,3,5,-1,7,9,11,-1,-1,13,15,17,19,-1,21,-1,23,25,27,-1,29,31,33,35,37,39,-1,41,43,-1,45,-1,47,49,51,53,-1,-1,55,57,59,61,-1,63,65,-1,-1,-1,-1,-1,-1,67,69,-1,-1,-1,71,-1,-1,73,-1,75,-1,-1,77,79,81,-1,-1,-1,-1,-1,-1,-1,-1,-1,-1,-1,-1,-1,-1,-1,-1],"loss_changes":[1.00653796E3,4.865152E2,9.705728E2,0E0,5.6789017E1,4.200786E2,6.6834875E2,0E0,0E0,2.1912921E2,3.7055194E2,3.8402026E2,4.3099368E2,0E0,2.3848822E2,0E0,1.2226137E2,2.2168942E2,4.6334546E2,0E0,3.8653125E2,4.893927E1,1.6177974E2,2.4645767E1,4.6857452E1,1.8431131E2,0E0,4.3928723E2,2.9589127E2,0E0,8.0810135E1,0E0,2.4014389E1,1.6620066E1,1.5239587E2,1.1354668E1,0E0,0E0,2.8404526E1,1.8064808E1,1.1368582E2,1.371665E2,0E0,6.8699615E1,1.4834933E2,0E0,0E0,0E0,0E0,0E0,0E0,9.1612885E1,2.2327728E1,0E0,0E0,0E0,1.23268585E1,0E0,0E0,7.480109E1,0E0,8.254907E1,0E0,0E0,4.3230682E1,2.3633316E1,7.7135515E0,0E0,0E0,0E0,0E0,0E0,0E0,0E0,0E0,0E0,0E0,0E0,0E0,0E0,0E0,0E0,0E0],"parents":[2147483647,0,0,1,1,2,2,4,4,5,5,6,6,9,9,10,10,11,11,12,12,14,14,16,16,17,17,18,18,20,20,21,21,22,22,23,23,24,24,25,25,27,27,28,28,30,30,32,32,33,33,34,34,35,35,38,38,39,39,40,40,41,41,43,43,44,44,51,51,52,52,56,56,59,59,61,61,64,64,65,65,66,66],"right_children":[2,4,6,-1,8,10,12,-1,-1,14,16,18,20,-1,22,-1,24,26,28,-1,30,32,34,36,38,40,-1,42,44,-1,46,-1,48,50,52,54,-1,-1,56,58,60,62,-1,64,66,-1,-1,-1,-1,-1,-1,68,70,-1,-1,-1,72,-1,-1,74,-1,76,-1,-1,78,80,82,-1,-1,-1,-1,-1,-1,-1,-1,-1,-1,-1,-1,-1,-1,-1,-1],"split_conditions":[9.520801E-2,8.695652E-1,2.4133618E-1,-2.1389975E-1,7.0178926E-1,4.7826087E-1,8.8235295E-1,1.3773501E-1,-0E0,1.0081913E-1,8.695652E-1,5.652174E-1,9.130435E-1,-1.7955534E-1,1.7391305E-1,-2.4327423E-1,7.2167E-1,1.2883733E-1,8.51608E-2,-1.70641E-1,1E0,3.529412E-1,1.631635E-1,1E0,5.540979E-2,1.19673915E-1,-9.945755E-2,8.2107353E-1,6.421471E-1,3.2059592E-1,1E0,-0E0,6.813163E-2,4.117647E-1,3.0417496E-1,7.8724846E-2,-0E0,-0E0,2.9411766E-1,3.9130434E-1,4.7826087E-1,1E0,-0E0,1.06290214E-1,3.5460007E-1,-0E0,-1.5985085E-1,-0E0,-1.2671776E-1,-0E0,-9.049038E-2,8.235294E-1,4.7058824E-1,1.5607482E-1,-0E0,-0E0,9.238203E-2,-7.945753E-2,-0E0,1.1764706E-1,-0E0,7.4137084E-2,-0E0,-0E0,5.257395E-1,7.058824E-1,6.4424247E-1,1.8008727E-1,-0E0,1.6123177E-2,-9.3614794E-2,-0E0,-1.6258171E-1,-0E0,1.3892232E-1,-0E0,2.1058217E-1,1.5802348E-1,-0E0,-1.9351448E-1,-0E0,-6.2232014E-2,1.349047E-2],"split_indices":[7,14,9,0,4,14,13,0,0,11,14,14,14,0,14,0,4,2,8,0,13,13,1,13,8,11,0,4,4,0,14,0,2,13,4,8,0,0,13,14,14,14,0,11,9,0,0,0,0,0,0,13,13,0,0,0,2,0,0,13,0,11,0,0,9,13,4,0,0,0,0,0,0,0,0,0,0,0,0,0,0,0,0],"split_type":[0,0,0,0,0,0,0,0,0,0,0,0,0,0,0,0,0,0,0,0,0,0,0,0,0,0,0,0,0,0,0,0,0,0,0,0,0,0,0,0,0,0,0,0,0,0,0,0,0,0,0,0,0,0,0,0,0,0,0,0,0,0,0,0,0,0,0,0,0,0,0,0,0,0,0,0,0,0,0,0,0,0,0],"sum_hessian":[2.8719324E4,3.3477183E3,2.5371605E4,2.878946E3,4.6877237E2,7.8023486E3,1.7569256E4,3.5227884E2,1.1649352E2,4.30731E3,3.495039E3,1.441564E4,3.1536162E3,5.87575E2,3.7197349E3,1.9415275E3,1.5535115E3,4.644027E3,9.771613E3,1.7594272E3,1.3941891E3,1.2264937E3,2.4932412E3,3.4352048E2,1.209991E3,3.4111497E3,1.2328773E3,6.6531304E3,3.1184827E3,3.4914716E2,1.045042E3,1.5259949E2,1.0738942E3,3.078609E2,2.1853804E3,2.9112592E2,5.239456E1,5.9680145E2,6.131896E2,8.6496967E2,2.54618E3,5.598555E3,1.0545751E3,1.491161E3,1.6273218E3,7.414712E2,3.0357074E2,1.9491579E2,8.7897833E2,1.785476E1,2.9000616E2,1.6655841E3,5.1979614E2,2.757512E2,1.5374724E1,1.1070438E1,6.0211914E2,5.0768155E2,3.5728812E2,2.2786934E3,2.6748663E2,5.2900625E3,3.0849268E2,2.1278113E2,1.2783799E3,6.339135E2,9.9340826E2,1.5511283E3,1.1445581E2,3.0005154E2,2.1974461E2,9.170322E0,5.929488E2,2.2129271E2,2.0574006E3,1.5533818E2,5.134724E3,1.1566637E3,1.21716095E2,6.226387E2,1.1274828E1,1.3841312E2,8.549951E2],"tree_param":{"num_deleted":"0","num_feature":"15","num_nodes":"83","size_leaf_vector":"1"}},{"base_weights":[-2.68118E-2,-4.862336E-1,2.7406435E-2,-1.498664E-1,-0E0,-2.5665423E-1,1.0342299E-1,-7.028918E-3,-1.4799963E-1,2.5095296E-1,-1.2859355E-1,-2.8503358E-1,6.0673803E-2,-0E0,3.3422193E-1,-7.862227E-3,-1.544891E-1,-4.8582503E-1,-0E0,3.192644E-1,-2.1918442E-2,1.7962065E-1,-2.9031408E-1,3.6517823E-1,-1.606881E-2,-2.8668892E-1,1.0323155E-1,-0E0,-5.573311E-1,4.618293E-1,-0E0,-4.0956046E-2,-0E0,-2.6476244E-2,3.4735337E-1,-3.8822773E-1,-0E0,4.0572727E-1,-0E0,-4.3857098E-2,-1.5153149E-1,2.5271887E-1,-1.5608434E-1,-1.7480291E-1,-0E0,-0E0,5.511803E-1,4.684958E-1,-0E0,-0E0,-1.691879E-1,-0E0,4.348184E-1,-3.0486593E-1,-0E0,3.7412265E-1,-7.238202E-2,-2.6874375E-1,-0E0,1.7977494E-1,-0E0,-0E0,1.6951065E-1,1.4720234E-1,2.2193711E-2,-1.2581638E-1,-0E0,-0E0,1.3889574E-1,-0E0,-5.178158E-2,-0E0,-9.313832E-2],"categories":[],"categories_nodes":[],"categories_segments":[],"categories_sizes":[],"default_left":[0,0,0,0,0,0,0,0,0,0,0,0,0,0,0,0,0,0,0,0,0,0,0,0,0,0,0,0,0,0,0,0,0,0,0,0,0,0,0,0,0,0,0,0,0,0,0,0,0,0,0,0,0,0,0,0,0,0,0,0,0,0,0,0,0,0,0,0,0,0,0,0,0],"id":8,"left_children":[1,3,5,-1,-1,7,9,11,-1,13,15,17,19,21,23,25,-1,27,-1,29,31,33,35,37,-1,39,41,-1,43,45,-1,-1,-1,-1,47,49,-1,51,-1,53,-1,55,57,-1,-1,-1,59,61,-1,-1,-1,-1,63,65,-1,67,69,71,-1,-1,-1,-1,-1,-1,-1,-1,-1,-1,-1,-1,-1,-1,-1],"loss_changes":[7.3665576E2,2.5703064E1,4.9571985E2,0E0,0E0,2.0743228E2,6.7596796E2,7.885311E1,0E0,2.7039136E2,2.6072986E2,7.554103E1,7.618436E1,1.5541856E2,1.5387976E2,2.016988E2,0E0,3.0293533E1,0E0,3.8710617E1,1.0541667E1,1.1045754E2,5.0284508E1,1.4773267E2,0E0,2.9549164E1,1.5765085E2,0E0,9.163788E0,3.162133E1,0E0,0E0,0E0,0E0,9.184595E1,2.3043839E1,0E0,1.1996704E2,0E0,4.6544E1,0E0,1.4784431E2,2.0535278E1,0E0,0E0,0E0,2.2140274E1,6.477252E1,0E0,0E0,0E0,0E0,7.773474E1,3.298739E1,0E0,1.18933655E2,1.0094241E1,1.4301136E1,0E0,0E0,0E0,0E0,0E0,0E0,0E0,0E0,0E0,0E0,0E0,0E0,0E0,0E0,0E0],"parents":[2147483647,0,0,1,1,2,2,5,5,6,6,7,7,9,9,10,10,11,11,12,12,13,13,14,14,15,15,17,17,19,19,20,20,21,21,22,22,23,23,25,25,26,26,28,28,29,29,34,34,35,35,37,37,39,39,41,41,42,42,46,46,47,47,52,52,53,53,55,55,56,56,57,57],"right_children":[2,4,6,-1,-1,8,10,12,-1,14,16,18,20,22,24,26,-1,28,-1,30,32,34,36,38,-1,40,42,-1,44,46,-1,-1,-1,-1,48,50,-1,52,-1,54,-1,56,58,-1,-1,-1,60,62,-1,-1,-1,-1,64,66,-1,68,70,72,-1,-1,-1,-1,-1,-1,-1,-1,-1,-1,-1,-1,-1,-1,-1],"split_conditions":[1.9929327E-2,2.9180545E-1,2.0802206E-1,-1.498664E-1,-0E0,1.7142959E-1,4.0809146E-1,1.5029706E-1,-1.4799963E-1,4.1645996E-2,9.130435E-1,7.3913044E-1,4.7058824E-1,1.6974494E-1,3.16818E-1,2.6086956E-1,-1.544891E-1,3.529412E-1,-0E0,1.0748698E-1,7.3913044E-1,1.0384861E-1,1.7554526E-1,6.953914E-2,-1.606881E-2,5.145119E-1,2.115387E-1,-0E0,1.6518718E-1,1.0545637E-2,-0E0,-4.0956046E-2,-0E0,-2.6476244E-2,8.695652E-1,5.217391E-1,-0E0,8.1158005E-2,-0E0,3.1412697E-1,-1.5153149E-1,6.1741424E-1,4.07555E-1,-1.7480291E-1,-0E0,-0E0,2.6928145E-1,1.8198775E-2,-0E0,-0E0,-1.691879E-1,-0E0,7.958025E-2,1.7391305E-1,-0E0,8.683273E-2,3.9130434E-1,3.043478E-1,-0E0,1.7977494E-1,-0E0,-0E0,1.6951065E-1,1.4720234E-1,2.2193711E-2,-1.2581638E-1,-0E0,-0E0,1.3889574E-1,-0E0,-5.178158E-2,-0E0,-9.313832E-2],"split_indices":[6,11,9,0,0,3,3,9,0,8,12,12,13,3,2,12,0,13,0,2,12,7,5,6,0,3,2,0,3,10,0,0,0,0,12,12,0,11,0,9,0,3,9,0,0,0,11,8,0,0,0,0,8,12,0,11,12,12,0,0,0,0,0,0,0,0,0,0,0,0,0,0,0],"split_type":[0,0,0,0,0,0,0,0,0,0,0,0,0,0,0,0,0,0,0,0,0,0,0,0,0,0,0,0,0,0,0,0,0,0,0,0,0,0,0,0,0,0,0,0,0,0,0,0,0,0,0,0,0,0,0,0,0,0,0,0,0,0,0,0,0,0,0,0,0,0,0,0,0],"sum_hessian":[2.7049305E4,3.1214314E3,2.3927873E4,3.0601418E3,6.1289635E1,4.6706655E3,1.9257209E4,2.5551907E3,2.1154746E3,1.2132845E4,7.124364E3,8.962949E2,1.6588958E3,2.8721868E3,9.260658E3,5.6988413E3,1.4255221E3,6.2815857E2,2.6813635E2,8.026842E2,8.5621155E2,1.667278E3,1.2049087E3,8.90325E3,3.574081E2,1.9747479E3,3.7240938E3,5.3471687E1,5.746869E2,5.6476917E2,2.3791505E2,5.870619E2,2.6914972E2,3.2760547E2,1.3396725E3,1.0071264E3,1.9778224E2,8.1098936E3,7.933563E2,1.2324884E3,7.4225946E2,2.697437E3,1.0266567E3,5.52716E2,2.1970898E1,6.4368576E1,5.004006E2,1.1545979E3,1.8507468E2,4.577396E2,5.4938684E2,4.144291E2,7.6954644E3,5.256649E2,7.068235E2,2.270767E3,4.2666986E2,6.302229E2,3.964338E2,4.848975E2,1.5503117E1,1.5815288E2,9.96445E2,6.334949E3,1.3605151E3,4.6502728E2,6.0637653E1,2.3340343E2,2.0373636E3,1.3342519E1,4.1332736E2,9.774759E0,6.204482E2],"tree_param":{"num_deleted":"0","num_feature":"15","num_nodes":"73","size_leaf_vector":"1"}},{"base_weights":[-2.908421E-2,-1.5825593E-1,1.5184298E-1,-4.8701234E-2,-5.172262E-1,4.3920267E-1,-7.886448E-2,-3.9108434E-1,5.714929E-2,-0E0,-5.793025E-1,5.673012E-1,-5.9912182E-2,2.607843E-1,-2.3672763E-1,-6.636825E-1,-1.1858421E-1,-4.9691212E-1,1.3542761E-1,-8.005079E-1,-3.0197904E-1,7.6620644E-1,2.6751295E-1,-0E0,-2.2498682E-1,4.1470292E-1,-0E0,-3.7568116E-1,-0E0,-6.9253796E-1,-0E0,-3.5392654E-1,-0E0,-1.8279879E-1,-0E0,-0E0,2.9063055E-1,-0E0,-2.4282952E-1,-0E0,-4.6723136E-1,7.967261E-1,-0E0,-5.013774E-1,5.600011E-1,-0E0,-8.999616E-2,4.9628508E-1,-0E0,-4.0819296E-1,-0E0,-6.999357E-2,6.481075E-2,-0E0,-2.2016668E-1,-1.1338714E-1,-0E0,-6.866378E-2,2.6915044E-1,-0E0,3.7073335E-1,-5.778494E-1,-0E0,8.139074E-1,-0E0,-0E0,-1.6938466E-1,2.9077134E-1,1.4820528E-1,5.550205E-1,-0E0,-0E0,-4.2604133E-1,1.8496922E-1,-0E0,-0E0,-3.2108894E-1,5.401072E-1,-0E0,4.686219E-1,-0E0,-1.7752922E-1,-0E0,8.228834E-1,-0E0,-8.303492E-1,2.8312233E-1,-0E0,6.1414653E-1,-6.0011737E-2,-5.4904056E-1,4.6511464E-2,-1.5135315E-1,-1.2632994E-1,-0E0,1.8437019E-1,-0E0,1.5679899E-1,-0E0,-0E0,2.486339E-1,-0E0,-2.774163E-1,1.9231996E-1,-0E0,-1.9730087E-1,-0E0,-1.6936782E-1,-0E0],"categories":[],"categories_nodes":[],"categories_segments":[],"categories_sizes":[],"default_left":[0,0,0,0,0,0,0,0,0,0,0,0,0,0,0,0,0,0,0,0,0,0,0,0,0,0,0,0,0,0,0,0,0,0,0,0,0,0,0,0,0,0,0,0,0,0,0,0,0,0,0,0,0,0,0,0,0,0,0,0,0,0,0,0,0,0,0,0,0,0,0,0,0,0,0,0,0,0,0,0,0,0,0,0,0,0,0,0,0,0,0,0,0,0,0,0,0,0,0,0,0,0,0,0,0,0,0,0,0],"id":9,"left_children":[1,3,5,7,9,11,13,15,17,-1,19,21,23,25,27,29,31,33,35,37,39,41,43,-1,45,47,-1,49,51,53,-1,55,-1,-1,-1,57,59,-1,-1,-1,61,63,-1,65,67,-1,-1,69,-1,71,-1,-1,73,-1,-1,-1,-1,75,77,-1,79,81,-1,83,-1,-1,-1,-1,85,87,-1,-1,89,-1,-1,91,93,95,-1,97,-1,-1,-1,99,-1,101,-1,-1,103,105,107,-1,-1,-1,-1,-1,-1,-1,-1,-1,-1,-1,-1,-1,-1,-1,-1,-1,-1],"loss_changes":[6.1079004E2,5.3863306E2,7.4079535E2,4.9144656E2,1.1813422E2,3.8338605E2,2.9276105E2,1.3121426E2,3.4469397E2,0E0,3.526184E1,1.0420947E2,1.7868065E1,1.1339635E2,1.4077705E2,3.0937744E1,6.219881E1,2.5131836E1,1.6783665E2,8.705383E0,1.0541789E2,5.462793E1,4.4019687E2,0E0,1.2752794E1,5.7283615E1,0E0,3.5752686E1,1.8346842E1,2.8946106E1,0E0,7.9589844E0,0E0,0E0,0E0,8.449098E1,1.3110385E2,0E0,0E0,0E0,1.3501465E1,2.9985962E1,0E0,1.2416214E1,1.0312561E2,0E0,0E0,4.2610565E1,0E0,2.893988E1,0E0,0E0,8.946241E1,0E0,0E0,0E0,0E0,9.540076E1,1.21166435E2,0E0,1.2038562E2,8.532684E0,0E0,2.213684E1,0E0,0E0,0E0,0E0,7.366603E2,3.9770874E1,0E0,0E0,2.3724884E1,0E0,0E0,1.4915094E2,3.8397232E1,2.746376E1,0E0,9.819629E1,0E0,0E0,0E0,9.699951E0,0E0,2.807994E1,0E0,0E0,2.1350647E1,1.1926051E2,1.2307831E1,0E0,0E0,0E0,0E0,0E0,0E0,0E0,0E0,0E0,0E0,0E0,0E0,0E0,0E0,0E0,0E0,0E0,0E0],"parents":[2147483647,0,0,1,1,2,2,3,3,4,4,5,5,6,6,7,7,8,8,10,10,11,11,12,12,13,13,14,14,15,15,16,16,17,17,18,18,19,19,20,20,21,21,22,22,24,24,25,25,27,27,28,28,29,29,31,31,35,35,36,36,40,40,41,41,43,43,44,44,47,47,49,49,52,52,57,57,58,58,60,60,61,61,63,63,68,68,69,69,72,72,75,75,76,76,77,77,79,79,83,83,85,85,88,88,89,89,90,90],"right_children":[2,4,6,8,10,12,14,16,18,-1,20,22,24,26,28,30,32,34,36,38,40,42,44,-1,46,48,-1,50,52,54,-1,56,-1,-1,-1,58,60,-1,-1,-1,62,64,-1,66,68,-1,-1,70,-1,72,-1,-1,74,-1,-1,-1,-1,76,78,-1,80,82,-1,84,-1,-1,-1,-1,86,88,-1,-1,90,-1,-1,92,94,96,-1,98,-1,-1,-1,100,-1,102,-1,-1,104,106,108,-1,-1,-1,-1,-1,-1,-1,-1,-1,-1,-1,-1,-1,-1,-1,-1,-1,-1],"split_conditions":[7.3913044E-1,6.222664E-1,7.0178926E-1,2.173913E-1,2.8276166E-1,5.620053E-1,2.7176782E-1,1.4314216E-1,9.1831535E-2,-0E0,3.3472311E-1,6.6202784E-1,6.1741424E-1,8.807157E-1,3.276191E-1,2.0461696E-1,1.4221497E-1,5.217391E-1,1.5895142E-1,9.238203E-2,4.010554E-1,1E0,6.627983E-1,-0E0,1.329631E-2,1.3483205E-1,-0E0,3.9650023E-1,7.035777E-1,1.794201E-2,-0E0,8.5994996E-2,-0E0,-1.8279879E-1,-0E0,5.652174E-1,3.0971324E-2,-0E0,-2.4282952E-1,-0E0,6.627983E-1,1.15166955E-1,-0E0,3.0167106E-1,6.8190855E-1,-0E0,-8.999616E-2,6.9203615E-2,-0E0,3.310728E-3,-0E0,-6.999357E-2,7.2167E-1,-0E0,-2.2016668E-1,-1.1338714E-1,-0E0,1.7462441E-1,5.848725E-1,-0E0,1.20467775E-1,3.6930636E-1,-0E0,3.1284884E-1,-0E0,-0E0,-1.6938466E-1,2.9077134E-1,6.823891E-1,1.4576332E-1,-0E0,-0E0,7.415507E-1,1.8496922E-1,-0E0,4.7826087E-1,3.4581673E-1,1.0607724E-1,-0E0,6.1081797E-1,-0E0,-1.7752922E-1,-0E0,1.1640946E-2,-0E0,3.1618294E-1,2.8312233E-1,-0E0,8.681855E-2,7.035777E-1,2.6421744E-1,4.6511464E-2,-1.5135315E-1,-1.2632994E-1,-0E0,1.8437019E-1,-0E0,1.5679899E-1,-0E0,-0E0,2.486339E-1,-0E0,-2.774163E-1,1.9231996E-1,-0E0,-1.9730087E-1,-0E0,-1.6936782E-1,-0E0],"split_indices":[14,4,4,14,3,3,3,7,11,0,9,4,3,4,9,2,11,14,11,2,3,14,4,0,0,0,0,7,4,0,0,8,0,0,0,14,0,0,0,0,4,8,0,3,4,0,0,8,0,0,0,0,4,0,0,0,0,3,3,0,0,0,0,7,0,0,0,0,4,9,0,0,4,0,0,14,4,8,0,3,0,0,0,0,0,3,0,0,10,4,0,0,0,0,0,0,0,0,0,0,0,0,0,0,0,0,0,0,0],"split_type":[0,0,0,0,0,0,0,0,0,0,0,0,0,0,0,0,0,0,0,0,0,0,0,0,0,0,0,0,0,0,0,0,0,0,0,0,0,0,0,0,0,0,0,0,0,0,0,0,0,0,0,0,0,0,0,0,0,0,0,0,0,0,0,0,0,0,0,0,0,0,0,0,0,0,0,0,0,0,0,0,0,0,0,0,0,0,0,0,0,0,0,0,0,0,0,0,0,0,0,0,0,0,0,0,0,0,0,0,0],"sum_hessian":[2.6096012E4,1.5667558E4,1.0428455E4,1.2296987E4,3.3705706E3,4.908225E3,5.5202295E3,3.2091792E3,9.087809E3,3.317674E2,3.0388032E3,4.124155E3,7.8407074E2,1.4760964E3,4.0441328E3,1.3525157E3,1.8566633E3,9.079191E2,8.179889E3,1.4149635E3,1.6238396E3,2.2039146E3,1.92024E3,3.760686E2,4.080021E2,1.2426992E3,2.333973E2,2.602847E3,1.441286E3,1.30661E3,4.5905773E1,7.0441E2,1.1522534E3,6.712899E2,2.366292E2,4.417206E3,3.7626829E3,1.7754147E1,1.3972094E3,4.6299887E2,1.1608408E3,2.1243127E3,7.960191E1,3.9996588E2,1.520274E3,3.7075436E1,3.7092667E2,1.100103E3,1.425962E2,2.4192124E3,1.8363448E2,2.4397208E2,1.1973138E3,8.941924E1,1.2171907E3,6.7332166E2,3.1088362E1,3.4779053E3,9.3930096E2,4.9668332E2,3.2659995E3,7.991551E2,3.616857E2,2.0808113E3,4.3501335E1,4.5762646E1,3.5420325E2,5.952135E2,9.250606E2,1.0177825E3,8.232052E1,3.906606E1,2.3801462E3,2.4793724E2,9.4937665E2,2.394124E3,1.0837812E3,6.4813916E2,2.911618E2,2.5920142E3,6.7398553E2,7.863513E2,1.2803773E1,2.0683418E3,1.2469622E1,3.3757965E2,5.8748096E2,8.1209755E1,9.365727E2,8.79032E2,1.5011144E3,1.9974655E3,3.966585E2,8.4638947E2,2.3739185E2,5.731686E2,7.4970535E1,2.4430522E3,1.4896179E2,1.5211962E1,2.0531296E3,3.267171E1,3.0490793E2,9.114665E2,2.5106201E1,2.824195E2,5.966125E2,1.4583031E3,4.2811222E1],"tree_param":{"num_deleted":"0","num_feature":"15","num_nodes":"109","size_leaf_vector":"1"}},{"base_weights":[-3.1194326E-2,-1.4228879E-1,-0E0,9.083802E-2,-1.431002E-1,-4.4700548E-2,2.1775605E-1,-3.5204807E-1,-0E0,1.7995505E-2,-6.540086E-1,4.1641557E-1,-2.52209E-2,-1.0489252E-2,-4.671137E-1,1.0597056E-1,-2.4113896E-1,1.5775731E-1,-3.6578703E-1,-2.0269209E-1,-0E0,-0E0,5.1469415E-1,-2.6823777E-1,8.979129E-2,-0E0,-3.532061E-2,-0E0,-4.8597723E-1,-9.2797086E-2,1.9279018E-1,-0E0,-1.15728326E-1,3.3326215E-1,-0E0,-4.9992022E-1,-0E0,6.7366296E-1,1.9409133E-1,-0E0,-3.8705808E-1,1.9909342E-1,-2.891339E-2,-0E0,-1.4870411E-1,-0E0,-5.428474E-2,2.5066102E-1,-0E0,4.7257313E-1,-0E0,8.875933E-3,-4.044373E-1,-1.6977286E-1,-0E0,6.957116E-1,-0E0,3.534585E-1,-0E0,-0E0,-1.2470572E-1,-0E0,3.2600957E-1,-0E0,2.864914E-1,-0E0,1.658649E-1,4.6947766E-2,-5.433425E-2,-0E0,-1.3148637E-1,2.1514674E-1,-0E0,1.3019697E-1,-0E0,1.2315375E-1,-0E0,9.811041E-2,-0E0],"categories":[],"categories_nodes":[],"categories_segments":[],"categories_sizes":[],"default_left":[0,0,0,0,0,0,0,0,0,0,0,0,0,0,0,0,0,0,0,0,0,0,0,0,0,0,0,0,0,0,0,0,0,0,0,0,0,0,0,0,0,0,0,0,0,0,0,0,0,0,0,0,0,0,0,0,0,0,0,0,0,0,0,0,0,0,0,0,0,0,0,0,0,0,0,0,0,0,0],"id":10,"left_children":[1,-1,3,5,7,9,11,13,15,17,19,21,23,25,27,29,31,33,35,-1,-1,-1,37,39,41,-1,-1,-1,43,45,47,-1,-1,49,51,53,-1,55,57,-1,59,61,-1,-1,-1,-1,-1,63,-1,65,-1,67,69,-1,-1,71,-1,73,-1,-1,-1,-1,75,-1,77,-1,-1,-1,-1,-1,-1,-1,-1,-1,-1,-1,-1,-1,-1],"loss_changes":[4.016046E2,0E0,2.9079327E2,2.7359656E2,2.1957045E2,3.3556433E2,4.4090167E2,5.839633E1,1.4434285E2,2.7690112E2,7.7097473E0,2.2175317E2,1.1668744E2,8.073164E0,1.8028229E1,7.178385E1,2.0248535E1,1.5994987E2,8.270509E1,0E0,0E0,0E0,8.131604E1,4.9319473E1,5.188202E1,0E0,0E0,0E0,1.4922089E1,1.0923645E1,5.505815E1,0E0,0E0,1.546749E2,5.1279316E1,4.884059E1,0E0,4.765332E1,6.7267204E1,0E0,2.0734314E1,6.797934E1,0E0,0E0,0E0,0E0,0E0,3.654834E1,0E0,1.10079865E2,0E0,4.4039646E1,7.463108E0,0E0,0E0,2.0168823E1,0E0,1.6138313E1,0E0,0E0,0E0,0E0,4.9820023E1,0E0,3.405681E1,0E0,0E0,0E0,0E0,0E0,0E0,0E0,0E0,0E0,0E0,0E0,0E0,0E0,0E0],"parents":[2147483647,0,0,2,2,3,3,4,4,5,5,6,6,7,7,8,8,9,9,10,10,11,11,12,12,13,13,14,14,15,15,16,16,17,17,18,18,22,22,23,23,24,24,28,28,29,29,30,30,33,33,34,34,35,35,37,37,38,38,40,40,41,41,47,47,49,49,51,51,52,52,55,55,57,57,62,62,64,64],"right_children":[2,-1,4,6,8,10,12,14,16,18,20,22,24,26,28,30,32,34,36,-1,-1,-1,38,40,42,-1,-1,-1,44,46,48,-1,-1,50,52,54,-1,56,58,-1,60,62,-1,-1,-1,-1,-1,64,-1,66,-1,68,70,-1,-1,72,-1,74,-1,-1,-1,-1,76,-1,78,-1,-1,-1,-1,-1,-1,-1,-1,-1,-1,-1,-1,-1,-1],"split_conditions":[1.9585315E-2,-1.4228879E-1,3.8346526E-1,3.1558746E-1,3.3234796E-1,1.3670102E-1,7.2551775E-1,1.6426705E-1,5.408971E-1,1.9700967E-1,2.9853642E-1,1.764706E-1,2.5274572E-1,6.493466E-1,5.7387424E-1,1.16259366E-1,6.1741424E-1,4.7058824E-1,6.0741875E-2,-2.0269209E-1,-0E0,-0E0,6.657355E-1,2.4186456E-1,6.4705884E-1,-0E0,-3.532061E-2,-0E0,4.4003468E-2,5.7387424E-1,7.22978E-1,-0E0,-1.15728326E-1,1.09990835E-1,2.8380615E-1,1.7554526E-1,-0E0,2.5099635E-1,6.944296E-2,-0E0,3.310728E-3,2.9754225E-2,-2.891339E-2,-0E0,-1.4870411E-1,-0E0,-5.428474E-2,2.306399E-2,-0E0,1.9009985E-2,-0E0,7.058824E-1,9.9351294E-2,-1.6977286E-1,-0E0,9.802157E-2,-0E0,3.4300792E-1,-0E0,-0E0,-1.2470572E-1,-0E0,7.741808E-2,-0E0,1.4775458E-1,-0E0,1.658649E-1,4.6947766E-2,-5.433425E-2,-0E0,-1.3148637E-1,2.1514674E-1,-0E0,1.3019697E-1,-0E0,1.2315375E-1,-0E0,9.811041E-2,-0E0],"split_indices":[8,0,3,1,9,0,1,2,3,3,1,13,9,1,1,7,3,13,8,0,0,0,1,3,13,0,0,0,8,1,1,0,0,5,1,5,0,7,8,0,0,6,0,0,0,0,0,6,0,0,0,13,9,0,0,8,0,3,0,0,0,0,10,0,0,0,0,0,0,0,0,0,0,0,0,0,0,0,0],"split_type":[0,0,0,0,0,0,0,0,0,0,0,0,0,0,0,0,0,0,0,0,0,0,0,0,0,0,0,0,0,0,0,0,0,0,0,0,0,0,0,0,0,0,0,0,0,0,0,0,0,0,0,0,0,0,0,0,0,0,0,0,0,0,0,0,0,0,0,0,0,0,0,0,0,0,0,0,0,0,0],"sum_hessian":[2.4763729E4,1.8917423E3,2.2871986E4,1.4525448E4,8.346539E3,6.5023823E3,8.0230654E3,3.1501482E3,5.1963906E3,5.692418E3,8.0996423E2,4.724044E3,3.2990215E3,1.0940135E3,2.0561348E3,3.364593E3,1.8317975E3,4.4347603E3,1.2576576E3,7.757794E2,3.4184856E1,7.9496155E2,3.9290823E3,1.4421475E3,1.8568741E3,5.035465E2,5.90467E2,8.023606E1,1.9758987E3,5.431227E2,2.8214705E3,9.8034186E2,8.5145557E2,2.433423E3,2.0013374E3,1.0039458E3,2.5371179E2,2.340529E3,1.5885531E3,4.20648E2,1.0214994E3,1.6336089E3,2.2326521E2,1.5892174E1,1.9600066E3,6.71261E1,4.7599655E2,2.5450908E3,2.7637946E2,1.9024648E3,5.309581E2,1.6892828E3,3.120546E2,9.358285E2,6.8117256E1,2.2929417E3,4.7587605E1,1.01698627E3,5.715669E2,1.5943594E1,1.0055558E3,3.8513654E2,1.2484724E3,1.516569E2,2.393434E3,1.5260497E2,1.7498599E3,1.356514E3,3.327689E2,7.5839763E0,3.044706E2,2.1970437E3,9.58979E1,7.6004944E2,2.569368E2,1.0827825E3,1.6568993E2,2.1550635E3,2.3837053E2],"tree_param":{"num_deleted":"0","num_feature":"15","num_nodes":"79","size_leaf_vector":"1"}},{"base_weights":[-3.4254238E-2,-3.5170153E-1,7.3738233E-3,-4.557003E-1,-0E0,-4.408894E-1,4.5692123E-2,-5.304892E-1,-0E0,6.519099E-2,-0E0,-1.8166924E-1,-0E0,-2.3472403E-1,8.8736676E-2,-0E0,-5.397093E-1,-4.610143E-1,-0E0,1.6603711E-1,-1.4300884E-1,-0E0,-1.6511177E-1,-0E0,-4.986428E-1,1.9449739E-1,-1.975292E-1,-2.512498E-1,-0E0,-1.5241839E-1,-0E0,1.0113189E-1,4.667406E-1,-8.973433E-2,-0E0,-8.24043E-2,-0E0,1.8897468E-1,-8.601801E-2,5.1785254E-1,-0E0,-2.6649353E-3,7.906566E-2,-1.4378506E-1,-0E0,1.6295688E-1,-0E0],"categories":[],"categories_nodes":[],"categories_segments":[],"categories_sizes":[],"default_left":[0,0,0,0,0,0,0,0,0,0,0,0,0,0,0,0,0,0,0,0,0,0,0,0,0,0,0,0,0,0,0,0,0,0,0,0,0,0,0,0,0,0,0,0,0,0,0],"id":11,"left_children":[1,3,5,7,9,11,13,15,-1,-1,-1,-1,-1,17,19,-1,21,23,-1,25,27,-1,-1,-1,29,31,33,35,-1,-1,-1,37,39,-1,-1,-1,-1,41,43,45,-1,-1,-1,-1,-1,-1,-1],"loss_changes":[3.6234946E2,1.6981491E2,3.0150354E2,3.080249E1,1.4461217E1,5.47753E1,2.1364792E2,1.5798706E1,0E0,0E0,0E0,0E0,0E0,1.3058371E2,3.1136725E2,0E0,8.304749E0,1.9164276E1,0E0,1.3768826E2,4.652163E1,0E0,0E0,0E0,7.5231323E0,2.4563263E2,1.1147528E1,1.3381416E1,0E0,0E0,0E0,1.7606995E2,7.399689E1,0E0,0E0,0E0,0E0,1.4117514E2,9.959667E1,5.034442E1,0E0,0E0,0E0,0E0,0E0,0E0,0E0],"parents":[2147483647,0,0,1,1,2,2,3,3,4,4,5,5,6,6,7,7,13,13,14,14,16,16,17,17,19,19,20,20,24,24,25,25,26,26,27,27,31,31,32,32,37,37,38,38,39,39],"right_children":[2,4,6,8,10,12,14,16,-1,-1,-1,-1,-1,18,20,-1,22,24,-1,26,28,-1,-1,-1,30,32,34,36,-1,-1,-1,38,40,-1,-1,-1,-1,42,44,46,-1,-1,-1,-1,-1,-1,-1],"split_conditions":[1.0225563E-1,8.695652E-1,8.3159424E-2,1.8486872E-1,6.852873E-1,9.130435E-1,2.2320714E-2,3.310728E-3,-0E0,6.519099E-2,-0E0,-1.8166924E-1,-0E0,7.3913044E-1,1.15288086E-1,-0E0,6.0246263E-2,9.322779E-2,-0E0,1E0,3.0398864E-1,-0E0,-1.6511177E-1,-0E0,1.01459414E-1,8.695652E-1,1.6544884E-1,3.3053878E-1,-0E0,-1.5241839E-1,-0E0,6.26364E-1,8.6694324E-1,-8.973433E-2,-0E0,-8.24043E-2,-0E0,1.3043478E-1,2.4013743E-1,1E0,-0E0,-2.6649353E-3,7.906566E-2,-1.4378506E-1,-0E0,1.6295688E-1,-0E0],"split_indices":[7,14,11,11,1,14,0,0,0,0,0,0,0,14,0,0,3,3,0,14,9,0,0,0,10,14,11,0,0,0,0,1,1,0,0,0,0,12,9,12,0,0,0,0,0,0,0],"split_type":[0,0,0,0,0,0,0,0,0,0,0,0,0,0,0,0,0,0,0,0,0,0,0,0,0,0,0,0,0,0,0,0,0,0,0,0,0,0,0,0,0,0,0,0,0,0,0],"sum_hessian":[2.3849668E4,3.1459111E3,2.0703756E4,2.691344E3,4.5456717E2,1.3483412E3,1.9355416E4,2.0952678E3,5.960762E2,3.0561414E2,1.4895303E2,8.637977E2,4.845435E2,2.1518035E3,1.7203611E4,1.6760916E1,2.0785068E3,1.1717571E3,9.8004626E2,1.3343976E4,3.8596367E3,5.2367855E1,2.026139E3,9.319026E1,1.0785669E3,1.2724971E4,6.190043E2,1.9869656E3,1.8726711E3,1.0680703E3,1.0496504E1,9.85076E3,2.8742117E3,3.941878E2,2.2481645E2,1.8396864E3,1.4727917E2,7.2022554E3,2.6485042E3,2.6106555E3,2.6355603E2,1.4688547E3,5.733401E3,5.182668E2,2.1302373E3,2.543358E3,6.729777E1],"tree_param":{"num_deleted":"0","num_feature":"15","num_nodes":"47","size_leaf_vector":"1"}},{"base_weights":[-3.396206E-2,-2.4468306E-1,9.58652E-3,-2.5214416E-1,-0E0,-2.9719016E-1,4.7649812E-2,-1.24938086E-1,-1.3308503E-1,-4.344702E-1,-0E0,1.0624332E-1,-1.8060881E-1,-0E0,-4.9628664E-2,-0E0,-1.5058641E-1,-1.329761E-1,1.5244848E-1,-0E0,-2.6228318E-1,-0E0,-2.4781662E-1,-0E0,2.3455931E-1,-0E0,-7.94314E-2,-0E0,-8.48707E-2,-0E0,-1.0422539E-1,6.160348E-2,-5.013647E-2,5.3049284E-1,9.23064E-2,1.9947837E-1,-2.1967003E-3,6.103499E-1,-0E0,-1.5426328E-2,4.042787E-1,7.2301954E-2,-0E0,1.9182101E-1,-0E0,2.1775171E-2,-4.815774E-2,2.4322481E-1,-0E0],"categories":[],"categories_nodes":[],"categories_segments":[],"categories_sizes":[],"default_left":[0,0,0,0,0,0,0,0,0,0,0,0,0,0,0,0,0,0,0,0,0,0,0,0,0,0,0,0,0,0,0,0,0,0,0,0,0,0,0,0,0,0,0,0,0,0,0,0,0],"id":12,"left_children":[1,3,5,7,-1,9,11,-1,13,15,-1,17,19,-1,-1,-1,-1,21,23,25,27,-1,29,31,33,-1,-1,-1,-1,-1,-1,35,-1,37,39,41,-1,43,-1,45,47,-1,-1,-1,-1,-1,-1,-1,-1],"loss_changes":[2.461679E2,1.1531433E1,1.8516354E2,1.1718536E1,0E0,6.171689E1,2.1864294E2,0E0,2.0050129E1,5.072902E1,0E0,1.584413E2,2.6781189E1,0E0,0E0,0E0,0E0,5.095117E1,1.7311899E2,1.6594147E1,7.465355E0,0E0,8.839081E0,4.937121E1,2.6567493E2,0E0,0E0,0E0,0E0,0E0,0E0,5.0367332E1,0E0,1.52297E2,2.530829E2,2.1225327E1,0E0,4.9349182E1,0E0,6.432553E1,3.9754773E2,0E0,0E0,0E0,0E0,0E0,0E0,0E0,0E0],"parents":[2147483647,0,0,1,1,2,2,3,3,5,5,6,6,8,8,9,9,11,11,12,12,17,17,18,18,19,19,20,20,22,22,23,23,24,24,31,31,33,33,34,34,35,35,37,37,39,39,40,40],"right_children":[2,4,6,8,-1,10,12,-1,14,16,-1,18,20,-1,-1,-1,-1,22,24,26,28,-1,30,32,34,-1,-1,-1,-1,-1,-1,36,-1,38,40,42,-1,44,-1,46,48,-1,-1,-1,-1,-1,-1,-1,-1],"split_conditions":[1.08001456E-1,4.1145694E-1,1.641729E-1,8.1158005E-2,-0E0,6.5217394E-1,8.695652E-1,-1.24938086E-1,5.7286892E-2,8.695652E-2,-0E0,2.306399E-2,3.56043E-2,-0E0,-4.9628664E-2,-0E0,-1.5058641E-1,1.09938435E-1,1.7391305E-1,1E0,1.938786E-1,-0E0,2.173913E-1,5.440667E-2,4.7826087E-1,-0E0,-7.94314E-2,-0E0,-8.48707E-2,-0E0,-1.0422539E-1,3.7335092E-1,-5.013647E-2,6.490765E-1,6.956522E-1,2.3320763E-1,-2.1967003E-3,5.059527E-1,-0E0,6.086956E-1,7.058824E-1,7.2301954E-2,-0E0,1.9182101E-1,-0E0,2.1775171E-2,-4.815774E-2,2.4322481E-1,-0E0],"split_indices":[11,7,9,11,0,12,12,0,5,12,0,6,6,0,0,0,0,3,12,12,9,0,12,6,12,0,0,0,0,0,0,3,0,3,12,11,0,9,0,12,13,0,0,0,0,0,0,0,0],"split_type":[0,0,0,0,0,0,0,0,0,0,0,0,0,0,0,0,0,0,0,0,0,0,0,0,0,0,0,0,0,0,0,0,0,0,0,0,0,0,0,0,0,0,0,0,0,0,0,0,0],"sum_hessian":[2.3314992E4,4.531441E3,1.8783553E4,4.4485737E3,8.2867035E1,1.6755591E3,1.7107992E4,1.3849304E3,3.0636433E3,1.1106016E3,5.6495746E2,1.4091316E4,3.0166768E3,3.4844287E2,2.7152004E3,7.737205E1,1.0332296E3,1.800954E3,1.2290362E4,1.1972783E3,1.8193983E3,4.5320978E2,1.3477441E3,3.9524924E3,8.33787E3,9.612033E2,2.3607497E2,1.6235765E2,1.6570408E3,5.890761E2,7.58668E2,2.5291655E3,1.4233269E3,2.3935942E3,5.944276E3,1.5050342E3,1.0241313E3,2.216889E3,1.767052E2,4.0924863E3,1.8517893E3,1.3962764E3,1.0875774E2,2.1406526E3,7.6236336E1,1.9598649E3,2.1326216E3,1.0647777E3,7.870116E2],"tree_param":{"num_deleted":"0","num_feature":"15","num_nodes":"49","size_leaf_vector":"1"}},{"base_weights":[-3.0996522E-2,1.2309022E-2,-2.6005536E-1,-5.4780707E-2,3.6982316E-1,-8.81162E-2,-8.019517E-1,-0E0,-4.1459042E-1,5.642646E-1,-0E0,4.223252E-2,-3.11868E-1,-0E0,-2.4375865E-1,-2.7024585E-1,5.9076637E-2,-4.3605125E-1,-0E0,6.7170304E-1,-0E0,2.290769E-1,-2.4085276E-1,-0E0,-4.9256316E-1,-1.281249E-1,-1.8599236E-1,1.6011979E-1,-1.3744691E-1,-1.5123987E-1,-0E0,6.878028E-1,-0E0,-0E0,6.019769E-1,-9.8576106E-2,-0E0,-1.5385629E-1,-0E0,-4.9042752E-1,-0E0,1.0561306E-2,4.6991396E-1,7.0737225E-1,-2.7670783E-1,-0E0,-5.0900716E-2,2.0992967E-1,-0E0,6.494726E-1,-0E0,-0E0,-1.636613E-1,-2.4773961E-1,2.6305683E-2,1.6488539E-1,-1.4955927E-1,6.9716036E-1,-0E0,7.6616794E-1,-0E0,-6.015882E-1,-2.8354594E-2,6.8312424E-1,-0E0,-0E0,-9.4687104E-2,-0E0,4.073274E-2,-2.5939198E-2,1.5015201E-1,-0E0,-1.3157058E-1,-0E0,2.504371E-1,-7.148569E-4,1.1209472E-1,2.4122088E-1,-0E0,-1.973154E-1,-0E0,1.990313E-1,-5.2047078E-2,-0E0,2.1357174E-1],"categories":[],"categories_nodes":[],"categories_segments":[],"categories_sizes":[],"default_left":[0,0,0,0,0,0,0,0,0,0,0,0,0,0,0,0,0,0,0,0,0,0,0,0,0,0,0,0,0,0,0,0,0,0,0,0,0,0,0,0,0,0,0,0,0,0,0,0,0,0,0,0,0,0,0,0,0,0,0,0,0,0,0,0,0,0,0,0,0,0,0,0,0,0,0,0,0,0,0,0,0,0,0,0,0],"id":13,"left_children":[1,3,5,7,9,11,13,15,17,19,-1,21,23,-1,-1,25,27,29,-1,31,-1,33,35,-1,37,39,-1,41,43,-1,45,47,-1,-1,49,-1,-1,-1,-1,51,53,55,57,59,61,-1,-1,-1,-1,63,-1,-1,-1,65,67,69,71,73,75,77,-1,79,81,83,-1,-1,-1,-1,-1,-1,-1,-1,-1,-1,-1,-1,-1,-1,-1,-1,-1,-1,-1,-1,-1],"loss_changes":[2.6218524E2,4.9526547E2,2.6575525E2,2.6675052E2,3.0552222E2,1.3470497E2,9.482178E0,2.3936983E2,1.3915436E1,7.4348145E1,0E0,9.00108E1,4.891986E1,0E0,0E0,3.430426E1,2.2101408E2,1.6609253E1,0E0,2.0399658E1,0E0,1.6395386E2,1.7874313E1,0E0,1.3742813E1,7.690885E1,0E0,2.91284E2,3.2536514E2,0E0,8.908867E0,7.958435E0,0E0,0E0,2.5845459E1,0E0,0E0,0E0,0E0,1.4858459E1,2.3668024E1,1.3794937E2,1.6927295E2,1.92249E1,1.5118039E2,0E0,0E0,0E0,0E0,1.5175049E1,0E0,0E0,0E0,9.613024E0,1.9572653E1,3.296644E2,1.4421387E2,2.0658228E2,3.636878E1,8.318161E0,0E0,6.1692474E1,1.2450702E2,7.914917E0,0E0,0E0,0E0,0E0,0E0,0E0,0E0,0E0,0E0,0E0,0E0,0E0,0E0,0E0,0E0,0E0,0E0,0E0,0E0,0E0,0E0],"parents":[2147483647,0,0,1,1,2,2,3,3,4,4,5,5,6,6,7,7,8,8,9,9,11,11,12,12,15,15,16,16,17,17,19,19,21,21,22,22,24,24,25,25,27,27,28,28,30,30,31,31,34,34,39,39,40,40,41,41,42,42,43,43,44,44,49,49,53,53,54,54,55,55,56,56,57,57,58,58,59,59,61,61,62,62,63,63],"right_children":[2,4,6,8,10,12,14,16,18,20,-1,22,24,-1,-1,26,28,30,-1,32,-1,34,36,-1,38,40,-1,42,44,-1,46,48,-1,-1,50,-1,-1,-1,-1,52,54,56,58,60,62,-1,-1,-1,-1,64,-1,-1,-1,66,68,70,72,74,76,78,-1,80,82,84,-1,-1,-1,-1,-1,-1,-1,-1,-1,-1,-1,-1,-1,-1,-1,-1,-1,-1,-1,-1,-1],"split_conditions":[7.415507E-1,8.695652E-1,6.5217394E-1,8.235294E-1,1E0,8.2107353E-1,6.232814E-2,2.173913E-1,8.158741E-2,9.130435E-1,-0E0,6.4705884E-1,4.8325945E-2,-0E0,-2.4375865E-1,4.117647E-1,6.222664E-1,7.826087E-1,-0E0,1.00948006E-1,-0E0,7.826087E-1,5.217391E-1,-0E0,3.529412E-1,4.347826E-2,-1.8599236E-1,5.294118E-1,5.294118E-1,-1.5123987E-1,9.411765E-1,2.4125594E-1,-0E0,-0E0,9.183746E-2,-9.8576106E-2,-0E0,-1.5385629E-1,-0E0,6.782768E-2,1.2016897E-1,4.7058824E-1,5.82505E-1,7.075303E-2,6.956522E-1,-0E0,-5.0900716E-2,2.0992967E-1,-0E0,1.9527954E-1,-0E0,-0E0,-1.636613E-1,2.4082875E-2,5.882353E-2,1.764706E-1,2.8429425E-1,1.8341075E-1,6.042561E-1,1.00948006E-1,-0E0,5.882353E-1,5.882353E-1,7.4290055E-1,-0E0,-0E0,-9.4687104E-2,-0E0,4.073274E-2,-2.5939198E-2,1.5015201E-1,-0E0,-1.3157058E-1,-0E0,2.504371E-1,-7.148569E-4,1.1209472E-1,2.4122088E-1,-0E0,-1.973154E-1,-0E0,1.990313E-1,-5.2047078E-2,-0E0,2.1357174E-1],"split_indices":[4,14,12,13,13,4,5,14,6,12,0,13,0,0,0,13,4,14,0,8,0,14,12,0,13,14,0,13,13,0,13,0,0,0,8,0,0,0,0,5,11,13,4,6,14,0,0,0,0,0,0,0,0,0,13,13,4,4,4,8,0,13,13,4,0,0,0,0,0,0,0,0,0,0,0,0,0,0,0,0,0,0,0,0,0],"split_type":[0,0,0,0,0,0,0,0,0,0,0,0,0,0,0,0,0,0,0,0,0,0,0,0,0,0,0,0,0,0,0,0,0,0,0,0,0,0,0,0,0,0,0,0,0,0,0,0,0,0,0,0,0,0,0,0,0,0,0,0,0,0,0,0,0,0,0,0,0,0,0,0,0,0,0,0,0,0,0,0,0,0,0,0,0],"sum_hessian":[2.300875E4,1.8847893E4,4.1608564E3,1.554762E4,3.3002722E3,3.3511248E3,8.097319E2,1.3724888E4,1.8227329E3,2.376871E3,9.234011E2,1.7309637E3,1.620161E3,6.597996E0,8.0313385E2,2.7525625E3,1.0972325E4,1.7208556E3,1.0187728E2,1.8419205E3,5.349506E2,1.334337E3,3.966267E2,7.6941223E2,8.507488E2,2.2363594E3,5.162031E2,7.7069893E3,3.265336E3,1.3526401E3,3.6821548E2,1.7997925E3,4.2127975E1,6.8921E2,6.45127E2,3.7835733E2,1.8269382E1,8.369617E2,1.378712E1,4.7180865E2,1.7645508E3,5.496394E3,2.2105952E3,3.225083E2,2.9428276E3,5.937957E1,3.088359E2,1.7550131E3,4.4779434E1,6.154041E2,2.9722923E1,4.070498E1,4.3110367E2,3.6925836E2,1.3952924E3,3.2345366E3,2.2618574E3,1.352269E3,8.583262E2,3.0756598E2,1.4942322E1,1.0355938E3,1.9072338E3,5.8872375E2,2.6680313E1,4.5502487E1,3.2375586E2,2.818197E2,1.1134728E3,1.6163281E3,1.6182086E3,1.249603E3,1.01225433E3,1.1288523E2,1.2393838E3,5.9848773E2,2.598384E2,2.920614E2,1.5504598E1,1.0088877E3,2.6706076E1,1.6665651E2,1.7405773E3,3.1073568E1,5.576502E2],"tree_param":{"num_deleted":"0","num_feature":"15","num_nodes":"85","size_leaf_vector":"1"}},{"base_weights":[-2.941685E-2,-3.9412153E-1,-9.166556E-4,-4.10619E-1,-0E0,4.6758324E-2,-1.861359E-1,-1.2622358E-1,-0E0,1.2792294E-2,2.5781062E-1,-8.315312E-1,-8.526186E-2,5.191788E-2,-7.1893936E-1,-0E0,-2.5501472E-1,2.2796E-1,-1.9794463E-1,1.13129215E-2,2.665464E-1,-0E0,-2.2423641E-1,-0E0,-2.8709567E-1,5.444738E-2,-8.596677E-1,-0E0,-1.0100419E-1,6.0746768E-3,9.254776E-1,-0E0,-2.6505917E-1,-5.704721E-1,2.2420341E-1,1.7451605E-2,-2.1827194E-1,2.8235328E-1,-0E0,-0E0,-1.7725365E-1],"categories":[],"categories_nodes":[],"categories_segments":[],"categories_sizes":[],"default_left":[0,0,0,0,0,0,0,0,0,0,0,0,0,0,0,0,0,0,0,0,0,0,0,0,0,0,0,0,0,0,0,0,0,0,0,0,0,0,0,0,0],"id":14,"left_children":[1,3,5,7,-1,9,11,-1,-1,13,-1,15,17,19,21,-1,-1,-1,23,25,-1,-1,-1,-1,27,29,31,33,-1,35,37,-1,-1,39,-1,-1,-1,-1,-1,-1,-1],"loss_changes":[1.7682117E2,1.140712E1,2.0415765E2,7.6685486E0,0E0,3.2431274E2,1.9195737E2,0E0,0E0,3.5516333E2,0E0,9.148926E0,3.4244293E2,3.856867E2,9.686523E0,0E0,0E0,0E0,1.0023828E2,4.324601E2,0E0,0E0,0E0,0E0,1.6030518E1,4.5868253E2,1.2315979E1,2.8952094E2,0E0,4.1791397E2,8.122528E0,0E0,0E0,8.5829315E0,0E0,0E0,0E0,0E0,0E0,0E0,0E0],"parents":[2147483647,0,0,1,1,2,2,3,3,5,5,6,6,9,9,11,11,12,12,13,13,14,14,18,18,19,19,24,24,25,25,26,26,27,27,29,29,30,30,33,33],"right_children":[2,4,6,8,-1,10,12,-1,-1,14,-1,16,18,20,22,-1,-1,-1,24,26,-1,-1,-1,-1,28,30,32,34,-1,36,38,-1,-1,40,-1,-1,-1,-1,-1,-1,-1],"split_conditions":[8.095379E-2,2.9180545E-1,7.2167E-1,9.411765E-1,-0E0,7.035777E-1,7.2500193E-1,-1.2622358E-1,-0E0,7.0178926E-1,2.5781062E-1,2.005277E-1,7.415507E-1,6.823891E-1,5.294118E-1,-0E0,-2.5501472E-1,2.2796E-1,2.4978012E-1,6.8190855E-1,2.665464E-1,-0E0,-2.2423641E-1,-0E0,7.614314E-1,6.627983E-1,2.519789E-1,7.4290055E-1,-1.0100419E-1,6.6202784E-1,7.262926E-2,-0E0,-2.6505917E-1,6.324473E-2,2.2420341E-1,1.7451605E-2,-2.1827194E-1,2.8235328E-1,-0E0,-0E0,-1.7725365E-1],"split_indices":[7,11,4,13,0,4,4,0,0,4,0,3,4,4,13,0,0,0,3,4,0,0,0,0,4,4,3,4,0,4,10,0,0,5,0,0,0,0,0,0,0],"split_type":[0,0,0,0,0,0,0,0,0,0,0,0,0,0,0,0,0,0,0,0,0,0,0,0,0,0,0,0,0,0,0,0,0,0,0,0,0,0,0,0,0],"sum_hessian":[2.2217781E4,1.2613771E3,2.0956404E4,1.2296611E3,3.171598E1,1.6078617E4,4.877787E3,1.2144723E3,1.5188777E1,1.5595962E4,4.8265482E2,4.7513608E2,4.402651E3,1.4982657E4,6.1330524E2,7.84146E0,4.6729462E2,3.744925E2,4.0281587E3,1.4445896E4,5.3676105E2,2.8611958E1,5.8469324E2,8.974836E2,3.130675E3,1.3914673E4,5.3122296E2,7.129939E2,2.4176812E3,1.3332191E4,5.8248126E2,1.2564226E1,5.1865875E2,4.6876743E2,2.4422646E2,1.2623127E4,7.090646E2,5.723591E2,1.0122228E1,7.22738E0,4.6154004E2],"tree_param":{"num_deleted":"0","num_feature":"15","num_nodes":"41","size_leaf_vector":"1"}},{"base_weights":[-1.8702906E-2,-1.0572634E-1,8.1799984E-2,-0E0,-1.9753093E-1,1.4073218E-1,-2.948242E-1,9.324595E-2,-4.4791225E-1,-2.863099E-1,-3.20717E-2,2.0455553E-1,-9.063325E-2,-1.217119E-1,-0E0,-2.3104408E-1,2.821534E-1,-4.8988733E-1,-0E0,-3.769181E-1,-7.652166E-2,-0E0,-1.9788606E-1,2.7321807E-1,-0E0,-0E0,-2.4488159E-1,-0E0,-3.0747303E-1,3.9331752E-1,-0E0,-0E0,-5.586614E-1,-0E0,-4.3435732E-1,-0E0,-1.7278786E-1,-4.16113E-1,-0E0,3.0698428E-1,-0E0,1.7225916E-2,-2.1450306E-1,-1.1758059E-1,-0E0,-0E0,-1.0228965E-1,-0E0,4.6399912E-1,-5.961758E-1,-0E0,-0E0,-1.3360368E-1,5.4230135E-2,-0E0,-8.4281154E-2,-0E0,-1.4905074E-1,-0E0,-0E0,3.8927644E-1,1.7670308E-1,-0E0,-3.7425226E-1,-0E0,5.538285E-1,-0E0,-0E0,-1.9835378E-1,1.149479E-1,-0E0,4.2635107E-1,-0E0,1.0554334E-1,-0E0,-0E0,-1.24946E-1,1.7936835E-1,-0E0,8.159355E-2,-0E0,-0E0,1.3350144E-1],"categories":[],"categories_nodes":[],"categories_segments":[],"categories_sizes":[],"default_left":[0,0,0,0,0,0,0,0,0,0,0,0,0,0,0,0,0,0,0,0,0,0,0,0,0,0,0,0,0,0,0,0,0,0,0,0,0,0,0,0,0,0,0,0,0,0,0,0,0,0,0,0,0,0,0,0,0,0,0,0,0,0,0,0,0,0,0,0,0,0,0,0,0,0,0,0,0,0,0,0,0,0,0],"id":15,"left_children":[1,3,5,7,9,11,13,15,17,19,21,23,25,-1,-1,27,29,31,-1,33,35,-1,37,39,41,-1,43,-1,45,47,-1,-1,49,-1,51,53,55,57,-1,59,-1,61,63,-1,-1,-1,-1,-1,65,67,-1,-1,-1,-1,-1,-1,-1,-1,-1,69,71,73,-1,75,-1,77,-1,-1,-1,79,-1,81,-1,-1,-1,-1,-1,-1,-1,-1,-1,-1,-1],"loss_changes":[1.9334421E2,1.4076086E2,1.8653561E2,1.8120248E2,6.145453E1,1.3971016E2,1.9134422E1,2.8380524E2,2.3494888E1,1.6109589E1,4.0530624E1,1.3516043E2,3.6088604E1,0E0,0E0,1.9063072E1,1.443643E2,2.1414856E1,0E0,1.2036591E1,2.5332092E1,0E0,2.6075752E1,8.52193E1,3.0850306E1,0E0,3.1914223E1,0E0,1.2094879E1,1.1655151E2,0E0,0E0,1.7196167E1,0E0,1.1109558E1,8.973597E0,2.5262665E1,2.0212502E1,0E0,1.0569733E2,0E0,1.6490957E1,2.9593674E1,0E0,0E0,0E0,0E0,0E0,1.3370587E2,8.679138E0,0E0,0E0,0E0,0E0,0E0,0E0,0E0,0E0,0E0,8.094505E0,4.6947266E1,2.5783173E1,0E0,1.0036419E1,0E0,6.3905212E1,0E0,0E0,0E0,3.0427128E1,0E0,3.7152283E1,0E0,0E0,0E0,0E0,0E0,0E0,0E0,0E0,0E0,0E0,0E0],"parents":[2147483647,0,0,1,1,2,2,3,3,4,4,5,5,6,6,7,7,8,8,9,9,10,10,11,11,12,12,15,15,16,16,17,17,19,19,20,20,22,22,23,23,24,24,26,26,28,28,29,29,32,32,34,34,35,35,36,36,37,37,39,39,41,41,42,42,48,48,49,49,59,59,60,60,61,61,63,63,65,65,69,69,71,71],"right_children":[2,4,6,8,10,12,14,16,18,20,22,24,26,-1,-1,28,30,32,-1,34,36,-1,38,40,42,-1,44,-1,46,48,-1,-1,50,-1,52,54,56,58,-1,60,-1,62,64,-1,-1,-1,-1,-1,66,68,-1,-1,-1,-1,-1,-1,-1,-1,-1,70,72,74,-1,76,-1,78,-1,-1,-1,80,-1,82,-1,-1,-1,-1,-1,-1,-1,-1,-1,-1,-1],"split_conditions":[6.956522E-1,1.5743184E-1,1E0,4.7826087E-1,7.983126E-2,6.5735355E-2,1.648768E-1,1.7391305E-1,5.217391E-1,5.652174E-1,1.3483205E-1,9.130435E-1,6.607665E-2,-1.217119E-1,-0E0,7.508862E-2,1.1438031E-1,4.0329974E-2,-0E0,1.7462441E-1,5.800346E-1,-0E0,3.0877408E-1,6.253298E-1,6.457015E-1,-0E0,1.870325E-1,-0E0,8.695652E-2,1.7266461E-1,-0E0,-0E0,2.6421744E-1,-0E0,8.695652E-2,5.620053E-1,5.3025045E-2,2.2666281E-1,-0E0,2.6036587E-1,-0E0,1E0,9.5652175E-1,-1.1758059E-1,-0E0,-0E0,-1.0228965E-1,-0E0,3.7901706E-1,2.7286805E-2,-0E0,-0E0,-1.3360368E-1,5.4230135E-2,-0E0,-8.4281154E-2,-0E0,-1.4905074E-1,-0E0,3.1618294E-1,9.892225E-2,9.303293E-2,-0E0,2.2647318E-1,-0E0,3.9664883E-2,-0E0,-0E0,-1.9835378E-1,8.580177E-1,-0E0,6.783E-2,-0E0,1.0554334E-1,-0E0,-0E0,-1.24946E-1,1.7936835E-1,-0E0,8.159355E-2,-0E0,-0E0,1.3350144E-1],"split_indices":[14,3,14,14,0,10,11,14,14,14,0,12,8,0,0,5,0,5,0,3,1,0,1,3,1,0,11,0,12,1,0,0,0,0,14,3,0,11,0,9,0,12,14,0,0,0,0,0,1,0,0,0,0,0,0,0,0,0,0,3,8,8,0,3,0,10,0,0,0,1,0,11,0,0,0,0,0,0,0,0,0,0,0],"split_type":[0,0,0,0,0,0,0,0,0,0,0,0,0,0,0,0,0,0,0,0,0,0,0,0,0,0,0,0,0,0,0,0,0,0,0,0,0,0,0,0,0,0,0,0,0,0,0,0,0,0,0,0,0,0,0,0,0,0,0,0,0,0,0,0,0,0,0,0,0,0,0,0,0,0,0,0,0,0,0,0,0,0,0],"sum_hessian":[2.1730273E4,1.2376673E4,9.353601E3,5.223895E3,7.1527773E3,8.402911E3,9.5068964E2,4.5171333E3,7.067618E2,4.11589E3,3.0368872E3,7.050268E3,1.3526425E3,6.179945E2,3.326951E2,1.3957462E3,3.1213872E3,6.8863116E2,1.8130608E1,2.4180032E3,1.6978872E3,1.9227034E3,1.1141838E3,5.762286E3,1.2879822E3,5.660937E2,7.865488E2,4.0627942E2,9.894668E2,2.539208E3,5.821791E2,9.0643425E1,5.979878E2,5.335849E2,1.8844182E3,5.1690485E2,1.1809823E3,4.020856E2,7.120982E2,5.4685303E3,2.937559E2,6.221414E2,6.6584076E2,5.14421E2,2.721278E2,8.092312E1,9.085437E2,1.7350134E2,2.3657065E3,5.7340356E2,2.458422E1,3.585935E1,1.848559E3,2.739841E2,2.4292078E2,7.664245E2,4.1455783E2,3.6373712E2,3.8348476E1,1.370421E3,4.0981094E3,5.334357E2,8.870571E1,4.2959064E2,2.3625012E2,2.0962463E3,2.6946036E2,8.747017E1,4.8593338E2,6.119827E2,7.584383E2,3.6745374E3,4.2357196E2,3.4241092E2,1.9102478E2,2.4970957E1,4.046197E2,1.9773151E3,1.1893128E2,5.201244E2,9.185832E1,1.1404359E2,3.5604937E3],"tree_param":{"num_deleted":"0","num_feature":"15","num_nodes":"83","size_leaf_vector":"1"}},{"base_weights":[-2.725716E-2,2.8048358E-3,-2.4173833E-1,-3.467031E-1,3.474705E-2,-3.0734488E-1,-0E0,-5.1423293E-1,-0E0,-3.226392E-2,1.393955E-1,-1.0503923E-1,-0E0,-1.5996388E-1,-0E0,-9.967585E-2,9.762486E-2,1.8605779E-1,-1.2486028E-2,2.3266973E-3,-1.3927463E-1,2.1051344E-1,-4.9411997E-2,2.205611E-1,-0E0,-0E0,2.0241873E-1,-2.7497151E-1,-4.948755E-2,2.75733E-1,-0E0,2.6339158E-1,-0E0,3.6562037E-1,-0E0,-3.0711484E-1,-0E0,-2.000357E-1,-0E0,-0E0,3.0791986E-1,-0E0,3.0120623E-1,1.8000194E-1,-0E0,-0E0,-1.00054145E-1,-0E0,-6.8916515E-2,2.2015098E-2,-1.0470167E-2,1.0250557E-1,-0E0,-0E0,9.849256E-2],"categories":[],"categories_nodes":[],"categories_segments":[],"categories_sizes":[],"default_left":[0,0,0,0,0,0,0,0,0,0,0,0,0,0,0,0,0,0,0,0,0,0,0,0,0,0,0,0,0,0,0,0,0,0,0,0,0,0,0,0,0,0,0,0,0,0,0,0,0,0,0,0,0,0,0],"id":16,"left_children":[1,3,5,7,9,11,-1,13,-1,15,17,-1,-1,-1,-1,19,21,23,-1,25,27,29,-1,31,-1,-1,33,35,37,39,-1,41,-1,43,-1,45,-1,47,49,-1,51,-1,53,-1,-1,-1,-1,-1,-1,-1,-1,-1,-1,-1,-1],"loss_changes":[1.6965416E2,1.5895125E2,2.96716E1,2.1251541E1,1.3327846E2,1.1659363E1,0E0,9.085281E0,0E0,8.357993E1,8.229994E1,0E0,0E0,0E0,0E0,4.686303E1,8.199519E1,6.410794E1,0E0,2.793119E1,2.8388382E1,4.326528E1,0E0,7.8658966E1,0E0,0E0,4.768658E1,2.6562195E1,3.4482635E1,2.4938019E1,0E0,6.6068054E1,0E0,5.938241E1,0E0,9.541779E0,0E0,1.0263756E1,8.51494E0,0E0,2.4061096E1,0E0,5.858075E1,0E0,0E0,0E0,0E0,0E0,0E0,0E0,0E0,0E0,0E0,0E0,0E0],"parents":[2147483647,0,0,1,1,2,2,3,3,4,4,5,5,7,7,9,9,10,10,15,15,16,16,17,17,19,19,20,20,21,21,23,23,26,26,27,27,28,28,29,29,31,31,33,33,35,35,37,37,38,38,40,40,42,42],"right_children":[2,4,6,8,10,12,-1,14,-1,16,18,-1,-1,-1,-1,20,22,24,-1,26,28,30,-1,32,-1,-1,34,36,38,40,-1,42,-1,44,-1,46,-1,48,50,-1,52,-1,54,-1,-1,-1,-1,-1,-1,-1,-1,-1,-1,-1,-1],"split_conditions":[1.3483205E-1,1.4844877E-2,1.7468739E-1,7.3913044E-1,1.5535185E-1,2.6421744E-1,-0E0,3.1757978E-1,-0E0,9.130435E-1,2.3567648E-1,-1.0503923E-1,-0E0,-1.5996388E-1,-0E0,1.16974495E-1,1E0,5.466139E-1,-1.2486028E-2,2.1088287E-1,1.0684814E-1,9.4195545E-2,-4.9411997E-2,7.8202146E-1,-0E0,-0E0,8.235294E-1,1.283174E-1,2.3555115E-1,1.6058855E-1,-0E0,1.6971602E-1,-0E0,3.5202467E-1,-0E0,2.3281893E-2,-0E0,8.695652E-2,4.7058824E-1,-0E0,5.523307E-1,-0E0,1.1764706E-1,1.8000194E-1,-0E0,-0E0,-1.00054145E-1,-0E0,-6.8916515E-2,2.2015098E-2,-1.0470167E-2,1.0250557E-1,-0E0,-0E0,9.849256E-2],"split_indices":[0,0,11,14,11,0,0,11,0,14,11,0,0,0,0,3,14,3,0,1,11,0,0,1,0,0,13,0,9,9,0,9,0,1,0,0,0,12,13,0,3,0,13,0,0,0,0,0,0,0,0,0,0,0,0],"split_type":[0,0,0,0,0,0,0,0,0,0,0,0,0,0,0,0,0,0,0,0,0,0,0,0,0,0,0,0,0,0,0,0,0,0,0,0,0,0,0,0,0,0,0,0,0,0,0,0,0,0,0,0,0,0,0],"sum_hessian":[2.1234715E4,1.8064625E4,3.17009E3,1.1530336E3,1.6911592E4,2.2750232E3,8.9506696E2,6.0414874E2,5.488848E2,9.511962E3,7.3996304E3,1.8479432E3,4.2708008E2,5.9381494E2,1.0333776E1,6.9564688E3,2.555493E3,6.4847993E3,9.148312E2,9.7803625E2,5.978432E3,2.1518547E3,4.036382E2,5.9322344E3,5.525649E2,2.968483E2,6.81188E2,1.7724929E3,4.2059395E3,1.8230834E3,3.2877133E2,5.293431E3,6.3880286E2,5.650764E2,1.16111565E2,1.7023766E3,7.0116325E1,1.1185825E3,3.087357E3,9.832086E1,1.7247625E3,5.1761383E2,4.7758174E3,3.7437402E2,1.9070242E2,1.7314711E2,1.5292295E3,7.608114E1,1.0425013E3,1.1399281E3,1.9474288E3,1.6066969E3,1.1806554E2,2.1256577E2,4.563252E3],"tree_param":{"num_deleted":"0","num_feature":"15","num_nodes":"55","size_leaf_vector":"1"}},{"base_weights":[-3.4208972E-2,2.7606024E-3,-1.5829822E-1,-4.978868E-2,2.899944E-1,-0E0,-4.648764E-1,-0E0,-2.9524446E-1,4.3281838E-1,-0E0,6.46616E-2,-1.8888138E-1,-0E0,-5.015594E-1,2.1596596E-2,-2.4022949E-1,-4.1131866E-1,-0E0,4.808254E-1,-0E0,2.7463502E-1,-4.9349874E-2,-4.0148902E-1,-0E0,-0E0,-1.543954E-1,8.556414E-2,-1.4614637E-1,-2.6828843E-1,-0E0,-0E0,-4.452782E-1,5.122371E-1,-0E0,-0E0,4.2120957E-1,-1.8322659E-1,1.206009E-2,-1.3789012E-1,-0E0,-1.11739665E-1,2.010347E-1,-0E0,-3.1549904E-1,-3.8808703E-1,-0E0,-1.4473379E-1,-0E0,1.5822136E-1,-0E0,5.529259E-1,-0E0,-0E0,-2.2261727E-1,-0E0,-2.21179E-1,-1.2146837E-1,3.5872737E-1,-3.6032182E-1,-0E0,-0E0,-5.092966E-1,4.626351E-1,-9.920192E-2,1.7023198E-1,-0E0,-2.6146403E-1,-0E0,-0E0,1.347026E-1,-1.061846E-1,-0E0,-0E0,-6.686885E-2,1.692541E-1,-0E0,-0E0,-1.16943166E-1,-1.6109487E-1,-0E0,1.7584702E-1,-0E0,-0E0,-8.529003E-2],"categories":[],"categories_nodes":[],"categories_segments":[],"categories_sizes":[],"default_left":[0,0,0,0,0,0,0,0,0,0,0,0,0,0,0,0,0,0,0,0,0,0,0,0,0,0,0,0,0,0,0,0,0,0,0,0,0,0,0,0,0,0,0,0,0,0,0,0,0,0,0,0,0,0,0,0,0,0,0,0,0,0,0,0,0,0,0,0,0,0,0,0,0,0,0,0,0,0,0,0,0,0,0,0,0],"id":17,"left_children":[1,3,5,7,9,11,13,15,17,19,-1,21,23,-1,25,27,29,31,-1,33,-1,35,37,39,-1,-1,-1,41,43,45,-1,-1,47,49,-1,-1,51,53,-1,-1,-1,55,57,-1,59,61,63,-1,-1,-1,-1,65,-1,-1,67,69,71,73,75,77,-1,-1,79,81,-1,-1,-1,83,-1,-1,-1,-1,-1,-1,-1,-1,-1,-1,-1,-1,-1,-1,-1,-1,-1],"loss_changes":[1.17296616E2,2.6341367E2,2.158254E2,1.2270482E2,1.0631276E2,6.4502594E1,2.6071747E1,7.80589E1,4.853772E1,2.6788147E1,0E0,9.032794E1,4.302978E1,0E0,1.3977295E1,9.330397E1,1.5882248E1,3.1019836E1,0E0,2.118106E1,0E0,6.3502983E1,3.383313E1,1.0186577E1,0E0,0E0,0E0,1.8188983E2,7.050746E1,2.3992706E1,0E0,0E0,9.278107E0,1.4241974E1,0E0,0E0,6.1589905E1,1.6019588E1,0E0,0E0,0E0,4.4644173E1,2.9369785E2,0E0,3.0303276E1,1.3870789E1,6.9728745E1,0E0,0E0,0E0,0E0,8.39357E0,0E0,0E0,1.0659618E1,2.6853558E1,6.111187E1,4.669748E1,2.4423239E2,2.090445E1,0E0,0E0,1.2697296E1,1.6159325E1,0E0,0E0,0E0,8.467121E0,0E0,0E0,0E0,0E0,0E0,0E0,0E0,0E0,0E0,0E0,0E0,0E0,0E0,0E0,0E0,0E0,0E0],"parents":[2147483647,0,0,1,1,2,2,3,3,4,4,5,5,6,6,7,7,8,8,9,9,11,11,12,12,14,14,15,15,16,16,17,17,19,19,21,21,22,22,23,23,27,27,28,28,29,29,32,32,33,33,36,36,37,37,41,41,42,42,44,44,45,45,46,46,51,51,54,54,55,55,56,56,57,57,58,58,59,59,62,62,63,63,67,67],"right_children":[2,4,6,8,10,12,14,16,18,20,-1,22,24,-1,26,28,30,32,-1,34,-1,36,38,40,-1,-1,-1,42,44,46,-1,-1,48,50,-1,-1,52,54,-1,-1,-1,56,58,-1,60,62,64,-1,-1,-1,-1,66,-1,-1,68,70,72,74,76,78,-1,-1,80,82,-1,-1,-1,84,-1,-1,-1,-1,-1,-1,-1,-1,-1,-1,-1,-1,-1,-1,-1,-1,-1],"split_conditions":[7.0178926E-1,7.826087E-1,6.5217394E-1,7.058824E-1,9.411765E-1,8.2107353E-1,2.35708E-1,2.6637617E-1,7.521456E-2,5.6223545E-2,-0E0,5.294118E-1,9.130435E-1,-0E0,3.310728E-3,6.023857E-1,4.4503906E-1,1.7391305E-1,-0E0,1E0,-0E0,6.5217394E-1,5.217391E-1,3.8452935E-1,-0E0,-0E0,-1.543954E-1,1.3043478E-1,8.3272435E-2,6.5217394E-1,-0E0,-0E0,6.956522E-1,1.1933414E-1,-0E0,-0E0,7.741808E-2,1.3043478E-1,1.206009E-2,-1.3789012E-1,-0E0,8.695652E-2,1.764706E-1,-0E0,6.823891E-1,6.086956E-1,8.695652E-1,-1.4473379E-1,-0E0,1.5822136E-1,-0E0,3.0421317E-1,-0E0,-0E0,2.4225524E-1,1.764706E-1,5.4431256E-2,2.6086956E-1,8.695652E-1,5.294118E-1,-0E0,-0E0,4.7060394E-1,3.836978E-1,-9.920192E-2,1.7023198E-1,-0E0,2.585752E-1,-0E0,-0E0,1.347026E-1,-1.061846E-1,-0E0,-0E0,-6.686885E-2,1.692541E-1,-0E0,-0E0,-1.16943166E-1,-1.6109487E-1,-0E0,1.7584702E-1,-0E0,-0E0,-8.529003E-2],"split_indices":[4,14,12,13,13,4,3,7,8,6,0,13,14,0,0,4,1,12,0,14,0,14,12,7,0,0,0,12,8,12,0,0,14,8,0,0,10,12,0,0,0,12,13,0,4,12,12,0,0,0,0,0,0,0,7,13,8,12,12,13,0,0,0,4,0,0,0,3,0,0,0,0,0,0,0,0,0,0,0,0,0,0,0,0,0],"split_type":[0,0,0,0,0,0,0,0,0,0,0,0,0,0,0,0,0,0,0,0,0,0,0,0,0,0,0,0,0,0,0,0,0,0,0,0,0,0,0,0,0,0,0,0,0,0,0,0,0,0,0,0,0,0,0,0,0,0,0,0,0,0,0,0,0,0,0,0,0,0,0,0,0,0,0,0,0,0,0,0,0,0,0,0,0],"sum_hessian":[2.0922988E4,1.5270164E4,5.6528237E3,1.2505795E4,2.7643694E3,3.9992463E3,1.6535774E3,1.074311E4,1.7626848E3,1.8081392E3,9.5623016E2,2.4829443E3,1.5163022E3,1.294826E2,1.5240947E3,9.467665E3,1.2754456E3,1.1947875E3,5.6789734E2,1.580853E3,2.2728618E2,1.2963025E3,1.1866417E3,6.02048E2,9.142542E2,2.3815367E1,1.5002794E3,7.445438E3,2.0222267E3,1.2431378E3,3.230767E1,1.8936209E1,1.1758513E3,1.4735634E3,1.0728968E2,3.876479E2,9.086546E2,1.0885201E3,9.812161E1,5.074291E2,9.461886E1,2.3107112E3,5.1347266E3,8.8046826E2,1.1417584E3,7.5307886E2,4.90059E2,1.041423E3,1.3442836E2,1.4411919E3,3.2371403E1,7.2849274E2,1.801619E2,2.8090477E1,1.0604296E3,8.088337E2,1.5018776E3,1.4009531E3,3.7337737E3,1.1086213E3,3.3137135E1,2.6259082E2,4.9048807E2,1.5225131E2,3.3780768E2,7.177384E2,1.07542925E1,9.2448474E2,1.3594487E2,6.7627045E2,1.3256328E2,1.0738823E3,4.279953E2,4.543452E1,1.3555186E3,2.2764546E3,1.457319E3,2.3907158E1,1.0847141E3,4.851845E2,5.303551E0,1.4163771E2,1.0613612E1,3.7892345E1,8.865924E2],"tree_param":{"num_deleted":"0","num_feature":"15","num_nodes":"85","size_leaf_vector":"1"}},{"base_weights":[-2.4980703E-2,5.5425223E-3,-1.699859E-1,-4.8158675E-2,5.176322E-2,-3.8149565E-1,-5.2365035E-2,-5.6844756E-2,1.0581385E-1,-0E0,-4.140423E-1,6.1318006E-2,-2.8114253E-1,-0E0,-9.02811E-2,1.3776371E-1,-7.6561696E-3,-1.3202986E-1,-0E0,-0E0,1.63484E-1,-0E0,-9.0848505E-2,-1.5951781E-1,-0E0,-4.4344596E-4,1.7460448E-1,3.504336E-1,-0E0,-6.026453E-2,-0E0,-1.8568315E-1,-0E0,1.9796343E-1,-0E0,-0E0,4.1665968E-1,-0E0,-6.831707E-2,-0E0,2.1809842E-1,4.9267146E-1,-0E0,6.9871776E-2,-0E0,1.556779E-1,-0E0],"categories":[],"categories_nodes":[],"categories_segments":[],"categories_sizes":[],"default_left":[0,0,0,0,0,0,0,0,0,0,0,0,0,0,0,0,0,0,0,0,0,0,0,0,0,0,0,0,0,0,0,0,0,0,0,0,0,0,0,0,0,0,0,0,0,0,0],"id":18,"left_children":[1,3,5,-1,7,9,11,13,15,-1,17,19,21,-1,23,25,-1,-1,-1,-1,27,-1,-1,29,-1,31,33,35,-1,-1,-1,37,-1,39,-1,-1,41,-1,-1,-1,43,45,-1,-1,-1,-1,-1],"loss_changes":[1.1290295E2,1.08595764E2,4.8299652E1,0E0,8.438403E1,1.5992218E1,1.133618E2,1.5200821E1,5.5985405E1,0E0,1.5288345E1,3.1290468E1,1.0915001E1,0E0,1.6685995E1,6.776361E1,0E0,0E0,0E0,0E0,7.738331E1,0E0,0E0,9.057404E0,0E0,2.2873909E1,4.447197E1,2.0980492E1,0E0,0E0,0E0,9.188568E0,0E0,3.7941315E1,0E0,0E0,2.507106E1,0E0,0E0,0E0,3.2135834E1,1.5070236E1,0E0,0E0,0E0,0E0,0E0],"parents":[2147483647,0,0,1,1,2,2,4,4,5,5,6,6,7,7,8,8,10,10,11,11,12,12,14,14,15,15,20,20,23,23,25,25,26,26,27,27,31,31,33,33,36,36,40,40,41,41],"right_children":[2,4,6,-1,8,10,12,14,16,-1,18,20,22,-1,24,26,-1,-1,-1,-1,28,-1,-1,30,-1,32,34,36,-1,-1,-1,38,-1,40,-1,-1,42,-1,-1,-1,44,46,-1,-1,-1,-1,-1],"split_conditions":[1.1438031E-1,2.5578042E-2,2.8751183E-1,-4.8158675E-2,1.2016897E-1,1.17317244E-1,6.6202784E-1,2.9903349E-2,5.2682495E-1,-0E0,8.730256E-2,1.764706E-1,1.9876869E-1,-0E0,6.626795E-2,1.7493407E-1,-7.6561696E-3,-1.3202986E-1,-0E0,-0E0,4.942832E-1,-0E0,-9.0848505E-2,7.2500193E-1,-0E0,6.5217394E-1,7.077469E-2,3.227078E-1,-0E0,-6.026453E-2,-0E0,8.695652E-2,-0E0,1.3055454E-2,-0E0,-0E0,4.3604878E-1,-0E0,-6.831707E-2,-0E0,8.60835E-1,1E0,-0E0,6.9871776E-2,-0E0,1.556779E-1,-0E0],"split_indices":[0,0,4,0,11,0,4,0,3,0,8,13,3,0,0,9,0,0,0,0,3,0,0,4,0,12,10,1,0,0,0,12,0,10,0,0,9,0,0,0,4,12,0,0,0,0,0],"split_type":[0,0,0,0,0,0,0,0,0,0,0,0,0,0,0,0,0,0,0,0,0,0,0,0,0,0,0,0,0,0,0,0,0,0,0,0,0,0,0,0,0,0,0,0,0,0,0],"sum_hessian":[2.0418043E4,1.6087484E4,4.3305596E3,2.8569236E3,1.3230561E4,1.1308491E3,3.1997102E3,3.5541824E3,9.676378E3,7.760687E1,1.0532423E3,1.7377994E3,1.4619108E3,2.805365E2,3.2736458E3,8.622002E3,1.0543757E3,1.0110749E3,4.2167347E1,3.231307E2,1.4146687E3,8.294505E1,1.3789657E3,1.7039061E3,1.5697397E3,1.0320842E3,7.589918E3,9.375317E2,4.7713705E2,1.2986595E3,4.0524658E2,6.628032E2,3.6928098E2,7.03908E3,5.508381E2,1.5368066E2,7.83851E2,4.5158123E1,6.176451E2,4.4218E2,6.5969E3,6.637466E2,1.2010445E2,6.3770806E3,2.198195E2,6.541833E2,9.563314E0],"tree_param":{"num_deleted":"0","num_feature":"15","num_nodes":"47","size_leaf_vector":"1"}},{"base_weights":[-2.6211025E-2,-2.0191364E-1,-0E0,-7.643421E-2,-0E0,-1.9333169E-1,2.0364393E-2,-0E0,-6.8044744E-2,6.1148804E-2,-7.270555E-2,1.17139935E-1,-4.6900522E-2,-1.6589819E-1,-0E0,-2.4760785E-2,1.5522413E-1,-2.1259844E-1,-0E0,-5.6957614E-2,-0E0,1.797554E-1,-0E0,-0E0,-9.6400745E-2,2.2099823E-1,-0E0,7.084094E-2,-0E0],"categories":[],"categories_nodes":[],"categories_segments":[],"categories_sizes":[],"default_left":[0,0,0,0,0,0,0,0,0,0,0,0,0,0,0,0,0,0,0,0,0,0,0,0,0,0,0,0,0],"id":19,"left_children":[1,3,5,-1,-1,7,9,-1,-1,11,13,15,17,19,-1,-1,21,23,-1,-1,-1,25,-1,-1,-1,27,-1,-1,-1],"loss_changes":[9.73056E1,4.0686676E1,6.485049E1,0E0,0E0,9.980991E0,5.8696068E1,0E0,0E0,8.261824E1,3.714125E1,7.675188E1,5.067085E1,1.38806305E1,0E0,0E0,4.521515E1,2.5709812E1,0E0,0E0,0E0,4.931343E1,0E0,0E0,0E0,3.332669E1,0E0,0E0,